\data\
ngram 1=1157
ngram 2=3101
ngram 3=3920

\1-grams:
-3.5495179	<unk>	0
0	<s>	-0.55055535
-2.5594032	</s>	0
-3.4365795	﻿at	-0.07074914
-1.4848107	the	-0.16766456
-3.4365795	house	-0.07074914
-1.6132523	of	-0.24870062
-2.8332415	naroumov	-0.123428
-1.195819	,	-0.34068045
-1.7877582	a	-0.119867034
-3.4365795	cavalry	-0.07074914
-3.0845175	officer	-0.09390532
-2.9409542	long	-0.07074911
-3.4365795	winter	-0.07074914
-2.8332415	night	-0.14843345
-2.4288218	had	-0.10587421
-2.8332415	been	-0.07074914
-2.9409542	passed	-0.07074914
-1.9285834	in	-0.30785266
-3.23774	gambling	-0.07074914
-1.195819	.	-0.5460662
-1.9285834	at	-0.30785266
-3.4365795	five	-0.07074914
-3.4365795	morning	-0.07074914
-3.4365795	breakfast	-0.07074914
-2.020906	was	-0.12053457
-3.23774	served	-0.21679196
-1.5346009	to	-0.19901475
-3.4365795	weary	-0.07074914
-3.4365795	players	-0.07074914
-3.4365795	winners	-0.07074914
-3.4365795	ate	-0.07074914
-2.2726352	with	-0.25668383
-3.4365795	relish;	-0.07074914
-3.4365795	losers	-0.07074914
-2.200297	on	-0.265974
-3.4365795	contrary	-0.07074914
-3.4365795	pushed	-0.07074914
-3.0845175	back	-0.07074914
-2.9409542	their	-0.07074914
-3.4365795	plates	-0.07074914
-1.8426286	and	-0.11628657
-2.6750875	sat	-0.10291743
-3.4365795	brooding	-0.07074914
-3.4365795	gloomily	-0.07074914
-3.4365795	under	-0.07074914
-3.4365795	influence	-0.07074914
-3.0845175	good	-0.07074914
-3.23774	wine	-0.07074914
-3.4365795	however	-0.07074914
-3.4365795	conversation	-0.07074914
-2.6134048	then	-0.07074917
-3.23774	became	-0.07074914
-3.4365795	general	-0.07074914
-3.4365795	"well	-0.07074914
-3.4365795	sourine	-0.07074914
-2.200297	?	-1.0670164
-2.9409542	"	-0.15891764
-3.0845175	said	-0.07074917
-3.23774	host	-0.07074911
-3.4365795	inquiringly	-0.07074914
-3.4365795	"oh	-0.07074914
-2.359479	i	-0.10771374
-2.9409542	lost	-0.07074914
-2.2996986	as	-0.1695258
-3.23774	usual	-0.07074914
-2.392768	my	-0.17480342
-3.4365795	luck	-0.07074914
-2.2996986	is	-0.08559087
-3.4365795	abominable	-0.07074914
-2.359479	no	-0.12767129
-3.4365795	matter	-0.07074914
-2.8332415	how	-0.123428
-3.4365795	cool	-0.07074914
-3.23774	keep	-0.07074914
-2.7470047	never	-0.07074917
-3.23774	win	-0.07074914
-3.4365795	"how	-0.07074914
-2.158002	it	-0.18835993
-2.3285608	herman	-0.16034941
-2.2726352	that	-0.21099126
-2.0673945	you	-0.13176583
-3.4365795	touch	-0.07074914
-2.9409542	card	-0.10291743
-3.4365795	remarked	-0.07074914
-2.2996986	one	-0.21569356
-3.0845175	men	-0.07074914
-3.4365795	addressing	-0.07074914
-3.0845175	young	-0.13766041
-3.4365795	engineering	-0.07074914
-3.4365795	corps	-0.07074914
-3.4365795	"here	-0.07074914
-2.6750875	are	-0.12096546
-3.23774	rest	-0.07074914
-3.4365795	us	-0.07074914
-3.23774	o'clock	-0.07074914
-2.5113797	have	-0.10771374
-3.4365795	neither	-0.07074914
-3.0845175	played	-0.07074914
-3.4365795	nor	-0.07074914
-3.4365795	bet	-0.07074914
-2.359479	all	-0.12460725
-3.4365795	"play	-0.07074914
-3.4365795	interests	-0.07074914
-2.5113797	me	-0.12603435
-3.4365795	greatly	-0.07074914
-3.23774	replied	-0.13766041
-3.4365795	person	-0.07074914
-3.4365795	addressed	-0.07074914
-3.0845175	"but	-0.16246939
-2.9409542	hardly	-0.07074914
-3.4365795	care	-0.07074914
-3.4365795	sacrifice	-0.07074914
-3.4365795	necessaries	-0.07074914
-3.23774	life	-0.07074914
-2.3285608	for	-0.1875277
-3.4365795	uncertain	-0.07074914
-3.4365795	superfluities	-0.07074914
-3.4365795	"herman	-0.07074914
-3.4365795	german	-0.07074914
-3.23774	therefore	-0.07074914
-3.4365795	economical;	-0.07074914
-3.4365795	explains	-0.07074914
-2.6134048	tomsky	-0.09922325
-3.23774	can't	-0.07074914
-3.4365795	quite	-0.07074914
-3.23774	understand	-0.07074914
-2.8332415	grandmother	-0.09390532
-3.23774	countess	-0.09629032
-3.4365795	anna	-0.07074914
-3.4365795	fedorovna	-0.07074914
-3.4365795	"why	-0.07074914
-3.4365795	inquired	-0.07074914
-3.4365795	chorus	-0.07074914
-3.4365795	voices	-0.07074914
-3.23774	"i	-0.10291743
-2.9409542	why	-0.13766041
-3.4365795	gambles	-0.07074914
-3.4365795	don't	-0.07074914
-2.9409542	see	-0.07074914
-3.23774	anything	-0.07074914
-3.23774	very	-0.07074914
-3.4365795	striking	-0.07074914
-3.23774	fact	-0.07074914
-3.0845175	woman	-0.07074917
-3.4365795	eighty	-0.07074914
-3.4365795	refuses	-0.07074914
-3.4365795	gamble	-0.07074914
-3.4365795	objected	-0.07074914
-3.4365795	"have	-0.07074914
-2.8332415	heard	-0.123428
-1.9657755	her	-0.11786912
-3.23774	story	-0.07074914
-3.4365795	"no--"	-0.07074914
-3.23774	listen	-0.21679196
-3.4365795	begin	-0.07074914
-3.0845175	sixty	-0.16246939
-3.4365795	years	-0.07074914
-3.4365795	ago	-0.07074914
-2.8332415	went	-0.114192404
-3.4365795	paris	-0.07074914
-3.23774	where	-0.07074914
-2.2726352	she	-0.15404303
-3.4365795	fashion	-0.07074914
-3.4365795	people	-0.07074914
-3.4365795	crowded	-0.07074914
-2.8332415	each	-0.123428
-2.9409542	other	-0.07074914
-3.4365795	streets	-0.07074914
-3.4365795	get	-0.07074914
-3.23774	chance	-0.07074914
-3.4365795	'muscovite	-0.07074914
-3.4365795	venus	-0.07074914
-3.23774	'	-0.07074914
-3.4365795	called	-0.07074914
-3.0845175	great	-0.07074914
-3.4365795	ladies	-0.07074914
-3.0845175	faro	-0.16246939
-3.4365795	occasion	-0.07074914
-3.23774	while	-0.07074914
-3.23774	playing	-0.07074914
-3.4365795	duke	-0.07074914
-3.4365795	orleans	-0.07074914
-2.5113797	an	-0.07074911
-3.4365795	enormous	-0.07074914
-3.23774	sum	-0.21679196
-2.6134048	told	-0.12096546
-3.4365795	husband	-0.07074914
-3.23774	debt	-0.07074914
-3.23774	but	-0.07074914
-2.0840664	he	-0.13957305
-3.4365795	refused	-0.07074914
-3.4365795	outright	-0.07074914
-3.4365795	pay	-0.07074914
-3.4365795	nothing	-0.07074914
-2.9409542	could	-0.07074911
-3.4365795	induce	-0.07074914
-2.158002	him	-0.18265764
-3.4365795	change	-0.07074914
-1.8834829	his	-0.10704391
-3.0845175	mind	-0.07074914
-3.4365795	subject	-0.07074914
-3.4365795	wits'	-0.07074914
-3.4365795	ends	-0.07074914
-3.23774	finally	-0.07074914
-3.4365795	remembered	-0.07074914
-3.4365795	friend	-0.07074914
-3.4365795	hers	-0.07074914
-3.0845175	count	-0.07074914
-3.4365795	saint-germain	-0.07074914
-2.9409542	must	-0.07074911
-3.23774	many	-0.07074914
-3.4365795	wonderful	-0.07074914
-3.4365795	stories	-0.07074914
-2.5113797	about	-0.11567438
-3.23774	discovered	-0.07074914
-3.4365795	elixir	-0.07074914
-3.4365795	philosopher's	-0.07074914
-3.4365795	stone	-0.07074914
-3.4365795	equally	-0.07074914
-3.4365795	marvelous	-0.07074914
-3.4365795	things	-0.07074914
-2.6750875	money	-0.1754264
-3.4365795	disposal	-0.07074914
-3.0845175	knew	-0.07074914
-3.4365795	sent	-0.07074914
-2.9409542	note	-0.16578874
-3.4365795	asking	-0.07074914
-2.9409542	come	-0.36804634
-3.4365795	obeyed	-0.07074914
-3.4365795	summons	-0.07074914
-2.9409542	found	-0.13766041
-3.4365795	distress	-0.07074914
-3.4365795	painted	-0.07074914
-3.4365795	cruelty	-0.07074914
-3.4365795	darkest	-0.07074914
-3.4365795	colors	-0.07074914
-3.4365795	ended	-0.07074914
-2.6750875	by	-0.13644809
-3.4365795	telling	-0.07074914
-3.4365795	depended	-0.07074914
-2.6750875	upon	-0.14811982
-3.4365795	friendship	-0.07074914
-3.4365795	generosity	-0.07074914
-3.4365795	"'i	-0.07074914
-3.4365795	lend	-0.07074914
-2.6134048	after	-0.15623634
-3.23774	moment	-0.07074914
-3.4365795	thoughtfulness	-0.07074914
-3.4365795	'but	-0.07074914
-3.0845175	know	-0.07074914
-2.8332415	would	-0.123428
-2.359479	not	-0.10095777
-3.4365795	enjoy	-0.07074914
-3.4365795	moment's	-0.07074914
-3.0845175	until	-0.16246939
-2.8332415	returned	-0.07074914
-3.4365795	it;	-0.07074914
-2.6750875	only	-0.10291743
-3.4365795	add	-0.07074914
-2.9409542	your	-0.07074914
-3.23774	embarrassment	-0.21679196
-2.8332415	there	-0.07074911
-3.0845175	another	-0.07074914
-2.9409542	way	-0.07074911
-3.4365795	freeing	-0.07074914
-3.4365795	yourself	-0.07074914
-3.4365795	"'but	-0.07074914
-3.4365795	insisted	-0.07074914
-3.4365795	"'there	-0.07074914
-3.23774	need	-0.07074914
-3.23774	"the	-0.114192404
-3.0845175	secret	-0.07074911
-2.8332415	which	-0.07074911
-2.8332415	any	-0.07074911
-3.4365795	give	-0.07074914
-3.0845175	deal	-0.07074914
-3.4365795	gamesters	-0.07074914
-2.7470047	were	-0.07074914
-3.0845175	attention	-0.16246939
-3.23774	lit	-0.21679196
-3.4365795	pipe	-0.07074914
-2.8332415	took	-0.14843345
-3.4365795	few	-0.07074914
-3.4365795	whiffs	-0.07074914
-3.4365795	continued:	-0.07074914
-3.23774	next	-0.21679196
-3.23774	evening	-0.07074914
-3.23774	appeared	-0.21679196
-3.4365795	versailles	-0.07074914
-3.4365795	queen's	-0.07074914
-3.4365795	gaming-table	-0.07074914
-3.4365795	dealer	-0.07074914
-2.6134048	made	-0.13766041
-3.23774	some	-0.07074914
-3.4365795	excuse	-0.07074914
-3.23774	having	-0.07074914
-3.4365795	brought	-0.07074914
-2.7470047	began	-0.16246939
-3.4365795	punt	-0.07074914
-3.23774	chose	-0.07074914
-2.7470047	three	-0.10291743
-2.7470047	cards	-0.21569356
-3.4365795	succession	-0.07074914
-2.6750875	again	-0.2733722
-3.23774	winning	-0.07074914
-2.9409542	every	-0.19319579
-2.7470047	time	-0.114192404
-2.9409542	soon	-0.07074914
-2.359479	out	-0.21621099
-3.4365795	"a	-0.07074914
-3.4365795	fable	-0.07074914
-3.4365795	herman;	-0.07074914
-3.4365795	"perhaps	-0.07074914
-3.4365795	marked	-0.07074914
-3.4365795	think	-0.07074914
-2.8332415	so	-0.07074911
-3.4365795	air	-0.07074914
-3.4365795	importance	-0.07074914
-3.4365795	"so	-0.07074914
-3.0845175	who	-0.114192404
-3.4365795	knows	-0.07074914
-3.4365795	haven't	-0.07074914
-3.23774	magic	-0.16246939
-3.4365795	say	-0.07074914
-3.4365795	four	-0.07074914
-3.4365795	sons	-0.07074914
-2.8332415	them	-0.114192404
-3.0845175	being	-0.07074914
-3.4365795	father	-0.07074914
-3.23774	whom	-0.21679196
-3.4365795	devoted	-0.07074914
-3.4365795	play;	-0.07074914
-3.4365795	uncle	-0.07074914
-2.5113797	this	-0.07074914
-2.9409542	much	-0.07074914
-2.9409542	word	-0.07074914
-3.4365795	honor	-0.07074914
-3.23774	tchaplitzky	-0.21679196
-3.4365795	died	-0.07074914
-3.4365795	poverty	-0.07074914
-3.4365795	squandered	-0.07074914
-3.4365795	millions	-0.07074914
-3.23774	play	-0.07074914
-3.23774	nearly	-0.07074914
-3.4365795	hundred	-0.07074914
-3.0845175	thousand	-0.24310762
-3.23774	rubles	-0.07074914
-3.4365795	desperate	-0.07074914
-3.4365795	pity	-0.07074914
-3.4365795	making	-0.07074914
-3.23774	swear	-0.07074914
-3.23774	use	-0.07074914
-3.4365795	game	-0.07074914
-3.4365795	staked	-0.07074914
-3.4365795	fifty	-0.07074914
-3.0845175	came	-0.07074914
-3.4365795	ahead	-0.07074914
-3.4365795	paying	-0.07074914
-3.4365795	debts	-0.07074914
-3.0845175	day	-0.07074914
-3.4365795	dawning	-0.07074914
-3.4365795	party	-0.07074914
-3.23774	now	-0.07074914
-3.4365795	broke	-0.07074914
-2.6750875	up	-0.21679196
-3.4365795	draining	-0.07074914
-3.4365795	glass	-0.07074914
-3.4365795	taking	-0.07074914
-3.4365795	leave	-0.07074914
-3.23774	seated	-0.07074914
-2.8332415	before	-0.123428
-3.4365795	mirror	-0.07074914
-3.4365795	dressing-room	-0.07074914
-3.23774	women	-0.07074914
-3.4365795	assisting	-0.07074914
-3.4365795	toilet	-0.07074914
-3.0845175	old	-0.10771374
-3.4365795	longer	-0.07074914
-3.4365795	slightest	-0.07074914
-3.4365795	pretensions	-0.07074914
-3.4365795	beauty	-0.07074914
-3.23774	still	-0.07074914
-3.4365795	clung	-0.07074914
-3.4365795	habits	-0.07074914
-3.23774	youth	-0.07074914
-3.4365795	spent	-0.07074914
-3.4365795	done	-0.07074914
-3.4365795	window	-0.07074914
-3.0845175	girl	-0.10771374
-3.4365795	ward	-0.07074914
-3.4365795	needlework	-0.07074914
-3.4365795	"good	-0.07074914
-3.4365795	afternoon	-0.07074914
-3.4365795	cried	-0.07074914
-3.4365795	just	-0.07074914
-3.0845175	entered	-0.13766041
-3.0845175	room	-0.14843345
-3.23774	ask	-0.07074914
-3.4365795	favor	-0.07074914
-3.4365795	"what	-0.07074914
-3.23774	pavel	-0.07074914
-3.4365795	want	-0.07074914
-2.8332415	be	-0.07074914
-3.4365795	allowed	-0.07074914
-3.23774	present	-0.07074914
-3.23774	friends	-0.07074914
-3.4365795	take	-0.07074914
-3.23774	ball	-0.07074914
-3.4365795	tuesday	-0.07074914
-3.4365795	"take	-0.07074914
-2.8332415	more	-0.16578874
-3.4365795	remarks	-0.07074914
-3.23774	walked	-0.07074914
-3.0845175	lisaveta	-0.123428
-3.4365795	ivanovna	-0.07074914
-3.4365795	"whom	-0.07074914
-2.8332415	do	-0.16578874
-3.4365795	wish	-0.07074914
-3.0845175	asked	-0.13766041
-3.4365795	"naroumov;	-0.07074914
-3.4365795	"no;	-0.07074914
-3.4365795	soldier	-0.07074914
-3.4365795	"yes	-0.07074914
-3.4365795	"an	-0.07074914
-3.4365795	engineer	-0.07074914
-3.4365795	smiled	-0.07074914
-3.0845175	reply	-0.19319579
-2.9409542	left	-0.123428
-3.0845175	herself	-0.07074914
-3.4365795	glanced	-0.07074914
-3.4365795	corner	-0.07074914
-3.4365795	street;	-0.07074914
-3.4365795	blushed	-0.07074914
-3.4365795	bent	-0.07074914
-3.23774	head	-0.07074914
-3.4365795	low	-0.07074914
-2.9409542	over	-0.13766041
-3.4365795	canvas	-0.07074914
-3.23774	appearance	-0.07074914
-3.4365795	become	-0.07074914
-3.23774	daily	-0.07074914
-3.4365795	occurrence	-0.07074914
-2.8332415	man	-0.07074914
-3.4365795	totally	-0.07074914
-3.4365795	unknown	-0.07074914
-3.4365795	accustomed	-0.07074914
-3.4365795	coquetting	-0.07074914
-3.4365795	soldiers	-0.07074914
-2.9409542	saw	-0.114192404
-3.4365795	street	-0.07074914
-3.4365795	explain	-0.07074914
-3.4365795	presence	-0.07074914
-3.4365795	persistence	-0.07074914
-3.4365795	roused	-0.07074914
-3.4365795	interest	-0.07074914
-3.4365795	entirely	-0.07074914
-3.4365795	strange	-0.07074914
-3.0845175	even	-0.07074914
-3.4365795	ventured	-0.07074914
-2.9409542	smile	-0.07074914
-3.4365795	admirer	-0.07074914
-3.23774	such	-0.07074914
-3.23774	seemed	-0.16246939
-3.4365795	reader	-0.07074914
-3.0845175	than	-0.07074911
-3.4365795	would-be	-0.07074914
-3.4365795	gambler	-0.07074914
-3.4365795	whose	-0.07074914
-3.23774	imagination	-0.07074914
-3.4365795	strongly	-0.07074914
-3.4365795	excited	-0.07074914
-3.4365795	"ah	-0.07074914
-2.8332415	thought	-0.114192404
-3.4365795	"if	-0.07074914
-3.4365795	reveal	-0.07074914
-3.4365795	try	-0.07074914
-3.4365795	good-will	-0.07074914
-3.4365795	appeal	-0.07074914
-3.4365795	sympathy	-0.07074914
-3.4365795	idea	-0.07074914
-3.4365795	station	-0.07074914
-3.4365795	watching	-0.07074914
-3.4365795	pretty	-0.07074914
-2.7470047	face	-0.07074914
-3.4365795	trusting	-0.07074914
-3.23774	fate	-0.07074914
-3.4365795	bring	-0.07074914
-3.23774	desired	-0.07074914
-3.4365795	acquaintance	-0.07074914
-3.4365795	standing	-0.07074914
-3.4365795	pavement	-0.07074914
-3.0845175	enter	-0.16246939
-3.4365795	carriage	-0.07074914
-3.23774	felt	-0.13766041
-3.4365795	jostled	-0.07074914
-3.4365795	thrust	-0.07074914
-2.6134048	into	-0.19319579
-3.0845175	hand	-0.07074914
-3.23774	turning	-0.07074914
-3.4365795	elbow	-0.07074914
-3.4365795	quick	-0.07074914
-3.0845175	put	-0.07074914
-3.4365795	glove	-0.07074914
-3.0845175	return	-0.07074914
-2.5113797	from	-0.22351415
-3.4365795	drive	-0.07074914
-3.4365795	hastened	-0.07074914
-3.23774	chamber	-0.07074914
-3.4365795	read	-0.07074914
-3.4365795	missive	-0.07074914
-3.4365795	state	-0.07074914
-3.4365795	excitement	-0.07074914
-3.23774	mingled	-0.21679196
-3.0845175	fear	-0.16246939
-3.4365795	tender	-0.07074914
-3.4365795	respectful	-0.07074914
-3.4365795	declaration	-0.07074914
-3.4365795	affection	-0.07074914
-3.4365795	copied	-0.07074914
-3.4365795	novel	-0.07074914
-2.9409542	lisa	-0.07074914
-3.4365795	course	-0.07074914
-3.4365795	ignorant	-0.07074914
-3.4365795	impressed	-0.07074914
-3.4365795	writer	-0.07074914
-3.4365795	encouraged	-0.07074914
-3.23774	wrote	-0.07074914
-3.4365795	lines	-0.07074914
-3.4365795	explanation	-0.07074914
-3.4365795	first	-0.07074914
-3.23774	opportunity	-0.07074914
-3.23774	dropped	-0.07074914
-3.4365795	letter	-0.07074914
-3.4365795	hastily	-0.07074914
-3.4365795	crossed	-0.07074914
-3.23774	picked	-0.21679196
-3.4365795	papers	-0.07074914
-3.4365795	shop	-0.07074914
-3.4365795	wise	-0.07074914
-3.4365795	daunted	-0.07074914
-3.4365795	rebuff	-0.07074914
-3.4365795	send	-0.07074914
-3.4365795	days	-0.07074914
-3.23774	received	-0.07074914
-3.4365795	evidently	-0.07074914
-3.4365795	understanding	-0.07074914
-3.4365795	female	-0.07074914
-3.23774	heart	-0.07074914
-3.4365795	presevered	-0.07074914
-3.4365795	begging	-0.07074914
-3.4365795	interview	-0.07074914
-3.4365795	rewarded	-0.07074914
-3.23774	last	-0.07074911
-3.4365795	following:	-0.07074914
-3.4365795	"to-night	-0.07074914
-3.0845175	we	-0.07074914
-2.9409542	go	-0.13766041
-3.4365795	ambassador's	-0.07074914
-3.23774	shall	-0.07074914
-3.4365795	remain	-0.07074914
-2.9409542	two	-0.07074914
-3.23774	can	-0.07074914
-3.4365795	arrange	-0.07074914
-3.4365795	meeting	-0.07074914
-3.4365795	our	-0.07074914
-3.4365795	departure	-0.07074914
-3.23774	servants	-0.07074914
-2.8332415	will	-0.123428
-3.4365795	probably	-0.07074914
-2.9409542	or	-0.114192404
-3.4365795	sleep	-0.07074914
-3.4365795	half-past	-0.07074914
-3.4365795	eleven	-0.07074914
-3.4365795	vestibule	-0.07074914
-3.4365795	boldly	-0.07074914
-3.0845175	if	-0.07074914
-3.4365795	inquire	-0.07074914
-3.4365795	countess;	-0.07074914
-3.4365795	ascend	-0.07074914
-3.4365795	stairs	-0.07074914
-3.23774	turn	-0.21679196
-2.6750875	door	-0.07074914
-3.4365795	opens	-0.07074914
-3.0845175	bedchamber	-0.07074914
-3.23774	behind	-0.07074914
-3.23774	screen	-0.07074914
-3.23774	find	-0.13766041
-3.4365795	leading	-0.07074914
-3.4365795	corridor;	-0.07074914
-3.4365795	spiral	-0.07074914
-3.23774	staircase	-0.07074914
-3.4365795	leads	-0.07074914
-3.4365795	sitting-room	-0.07074914
-3.4365795	expect	-0.07074914
-3.4365795	trembled	-0.07074914
-3.4365795	like	-0.07074914
-3.4365795	leaf	-0.07074914
-3.4365795	appointed	-0.07074914
-3.4365795	hour	-0.07074914
-3.0845175	drew	-0.07074914
-3.4365795	near	-0.07074914
-3.23774	instructions	-0.07074914
-3.4365795	fully	-0.07074914
-3.4365795	met	-0.07074914
-3.4365795	reached	-0.07074914
-3.4365795	lady's	-0.07074914
-2.6134048	without	-0.07074914
-3.4365795	difficulty	-0.07074914
-3.23774	instead	-0.07074914
-3.0845175	going	-0.16246939
-3.4365795	small	-0.07074914
-3.4365795	concealed	-0.07074914
-3.0845175	himself	-0.07074914
-3.4365795	closet	-0.07074914
-3.4365795	await	-0.07074914
-3.23774	hours	-0.07074914
-3.4365795	dragged	-0.07074914
-3.4365795	slowly	-0.07074914
-3.4365795	by;	-0.07074914
-3.23774	sound	-0.21679196
-3.4365795	wheels	-0.07074914
-3.4365795	immediately	-0.07074914
-3.4365795	lamps	-0.07074914
-3.4365795	lighted	-0.07074914
-3.4365795	moving	-0.07074914
-3.4365795	tottered	-0.07074914
-3.4365795	completely	-0.07074914
-3.4365795	exhausted	-0.07074914
-3.4365795	removed	-0.07074914
-3.4365795	wraps	-0.07074914
-3.4365795	proceeded	-0.07074914
-3.4365795	readiness	-0.07074914
-3.4365795	watched	-0.07074914
-3.4365795	proceedings	-0.07074914
-3.4365795	curiosity	-0.07074914
-3.4365795	unmingled	-0.07074914
-3.4365795	superstitious	-0.07074914
-2.9409542	when	-0.123428
-3.4365795	attired	-0.07074914
-3.4365795	cap	-0.07074914
-3.4365795	gown	-0.07074914
-2.9409542	looked	-0.07074911
-3.4365795	less	-0.07074914
-3.4365795	uncanny	-0.07074914
-3.4365795	wore	-0.07074914
-3.4365795	ball-dress	-0.07074914
-3.4365795	blue	-0.07074914
-3.4365795	brocade	-0.07074914
-2.8332415	down	-0.07074914
-3.4365795	easy	-0.07074914
-3.4365795	chair	-0.07074914
-3.4365795	beside	-0.07074914
-3.0845175	table	-0.19319579
-3.4365795	habit	-0.07074914
-3.4365795	doing	-0.07074914
-3.4365795	retiring	-0.07074914
-3.23774	withdrew	-0.21679196
-3.4365795	lady	-0.07074914
-3.4365795	swaying	-0.07074914
-3.4365795	fro	-0.07074914
-3.4365795	seemingly	-0.07074914
-3.4365795	oblivious	-0.07074914
-3.4365795	surroundings	-0.07074914
-3.4365795	crept	-0.07074914
-3.4365795	hiding-place	-0.07074914
-3.23774	slight	-0.07074914
-3.4365795	noise	-0.07074914
-2.9409542	opened	-0.13766041
-3.0845175	eyes	-0.123428
-3.4365795	gazed	-0.07074914
-3.4365795	intruder	-0.07074914
-3.4365795	half-dazed	-0.07074914
-3.23774	expression	-0.07074914
-3.4365795	beg	-0.07074914
-3.23774	calm	-0.07074914
-3.4365795	voice	-0.07074914
-3.4365795	harm	-0.07074914
-3.4365795	silence	-0.07074914
-3.4365795	comprehending	-0.07074914
-3.4365795	might	-0.07074914
-3.4365795	deaf	-0.07074914
-3.0845175	lips	-0.13766041
-3.0845175	close	-0.16246939
-3.4365795	ear	-0.07074914
-3.4365795	repeated	-0.07074914
-3.4365795	remark	-0.07074914
-3.4365795	listener	-0.07074914
-3.23774	remained	-0.07074914
-3.4365795	perfectly	-0.07074914
-3.4365795	mute	-0.07074914
-3.23774	"you	-0.07074914
-3.4365795	make	-0.07074914
-3.23774	fortune	-0.07074914
-3.4365795	its	-0.07074914
-3.4365795	costing	-0.07074914
-3.4365795	pleaded	-0.07074914
-3.4365795	man;	-0.07074914
-3.4365795	"only	-0.07074914
-3.0845175	tell	-0.24310762
-3.4365795	sure	-0.07074914
-3.4365795	and--"	-0.07074914
-3.23774	paused	-0.07074914
-3.4365795	speak	-0.07074914
-3.23774	"it	-0.16246939
-3.4365795	jest;	-0.07074914
-3.4365795	jest	-0.07074914
-3.4365795	withered	-0.07074914
-3.4365795	"there	-0.07074914
-3.4365795	jesting	-0.07074914
-3.4365795	remember	-0.07074914
-3.4365795	thanks	-0.07074914
-3.4365795	able	-0.07074914
-3.4365795	interior	-0.07074914
-3.4365795	agitation	-0.07074914
-3.4365795	woman;	-0.07074914
-3.4365795	relapsed	-0.07074914
-3.4365795	former	-0.07074914
-3.4365795	apathy	-0.07074914
-3.4365795	"will	-0.07074914
-3.4365795	names	-0.07074914
-3.4365795	pause	-0.07074914
-3.23774	pistol	-0.07074914
-3.4365795	pocket	-0.07074914
-3.4365795	exclaiming:	-0.07074914
-3.4365795	witch	-0.07074914
-3.4365795	i'll	-0.07074914
-3.23774	force	-0.07074914
-2.6750875	!	-0.21538024
-3.23774	sight	-0.21679196
-3.4365795	weapon	-0.07074914
-2.9409542	gave	-0.13766041
-3.4365795	second	-0.07074914
-3.4365795	sign	-0.07074914
-3.23774	threw	-0.07074914
-3.4365795	hands	-0.07074914
-3.4365795	protect	-0.07074914
-3.4365795	herself;	-0.07074914
-3.4365795	they	-0.07074914
-3.23774	motionless	-0.07074914
-3.4365795	grasped	-0.07074914
-3.4365795	arm	-0.07074914
-3.4365795	roughly	-0.07074914
-3.4365795	renew	-0.07074914
-3.4365795	threats	-0.07074914
-3.0845175	dead	-0.07074914
-3.4365795	reflections	-0.07074914
-3.23774	expected	-0.07074914
-3.4365795	relieved	-0.07074914
-3.4365795	strangely	-0.07074914
-3.4365795	enough	-0.07074914
-3.4365795	rallied	-0.07074914
-3.4365795	preference	-0.07074914
-3.4365795	assuring	-0.07074914
-3.4365795	supposed	-0.07074914
-3.23774	did	-0.07074914
-3.4365795	"of	-0.07074914
-3.4365795	speaking	-0.07074914
-3.4365795	alarm	-0.07074914
-3.4365795	fearing	-0.07074914
-3.4365795	adventure	-0.07074914
-3.4365795	remarkable	-0.07074914
-3.4365795	"his	-0.07074914
-3.4365795	name	-0.07074914
-3.4365795	"this	-0.07074914
-3.4365795	continued	-0.07074914
-3.4365795	"is	-0.07074914
-3.4365795	romantic	-0.07074914
-3.4365795	character;	-0.07074914
-3.0845175	has	-0.07074911
-3.4365795	profile	-0.07074914
-3.4365795	napoleon	-0.07074914
-3.4365795	mephistopheles	-0.07074914
-3.23774	least	-0.07074914
-3.4365795	crimes	-0.07074914
-3.4365795	conscience	-0.07074914
-3.23774	pale	-0.07074914
-3.4365795	headache	-0.07074914
-3.4365795	talk	-0.07074914
-3.4365795	"because	-0.07074914
-3.23774	believe	-0.07074914
-3.4365795	serious	-0.07074914
-3.4365795	intentions	-0.07074914
-3.4365795	concerning	-0.07074914
-3.4365795	"where	-0.07074914
-3.4365795	seen	-0.07074914
-3.4365795	"at	-0.07074914
-3.4365795	church	-0.07074914
-3.4365795	perhaps	-0.07074914
-3.4365795	interrupted	-0.07074914
-3.23774	point	-0.07074914
-3.4365795	regret	-0.07074914
-3.4365795	words	-0.07074914
-3.4365795	deep	-0.07074914
-3.4365795	impression	-0.07074914
-3.4365795	realized	-0.07074914
-3.4365795	imprudently	-0.07074914
-3.4365795	acted	-0.07074914
-3.4365795	thinking	-0.07074914
-3.4365795	apartment	-0.07074914
-3.4365795	suddenly	-0.07074914
-3.23774	stood	-0.07074914
-3.4365795	trembling	-0.07074914
-3.4365795	violently	-0.07074914
-3.4365795	frightened	-0.07074914
-3.4365795	whisper	-0.07074914
-3.4365795	"in	-0.07074914
-3.4365795	"my	-0.07074914
-3.4365795	god	-0.07074914
-3.23774	what	-0.07074914
-3.4365795	saying	-0.07074914
-3.4365795	"furthermore	-0.07074914
-3.4365795	cause	-0.07074914
-3.23774	death	-0.07074914
-3.4365795	flashed	-0.07074914
-3.23774	through	-0.07074914
-3.4365795	lisa's	-0.07074914
-3.4365795	listened	-0.07074914
-3.4365795	feeling	-0.07074914
-3.23774	terror	-0.07074914
-3.4365795	disgust	-0.07074914
-3.23774	those	-0.07074914
-3.4365795	passionate	-0.07074914
-3.4365795	letters	-0.07074914
-3.4365795	audacious	-0.07074914
-3.4365795	pursuit	-0.07074914
-3.4365795	result	-0.07074914
-3.4365795	tenderness	-0.07074914
-3.4365795	love	-0.07074914
-3.4365795	poor	-0.07074914
-3.4365795	sense	-0.07074914
-3.4365795	accomplice	-0.07074914
-3.4365795	benefactress	-0.07074914
-3.4365795	weep	-0.07074914
-3.4365795	bitterly	-0.07074914
-3.4365795	regarded	-0.07074914
-3.4365795	monster	-0.07074914
-3.0845175	exclaimed	-0.07074914
-3.4365795	drying	-0.07074914
-3.4365795	didn't	-0.07074914
-3.4365795	intend	-0.07074914
-3.4365795	kill	-0.07074914
-3.4365795	her;	-0.07074914
-3.4365795	loaded	-0.07074914
-3.4365795	daylight	-0.07074914
-3.4365795	intended	-0.07074914
-3.4365795	show	-0.07074914
-3.23774	asleep	-0.07074914
-3.4365795	cross	-0.07074914
-3.4365795	am	-0.07074914
-3.4365795	afraid	-0.07074914
-3.4365795	"direct	-0.07074914
-3.23774	alone	-0.07074914
-3.4365795	minute	-0.07074914
-3.4365795	key	-0.07074914
-3.23774	open	-0.07074914
-3.4365795	pressed	-0.07074914
-3.4365795	cold	-0.07074914
-3.4365795	inert	-0.07074914
-3.4365795	surprised	-0.07074914
-3.4365795	funeral	-0.07074914
-3.4365795	attended	-0.07074914
-3.4365795	vicinity	-0.07074914
-3.4365795	throng	-0.07074914
-3.4365795	attracting	-0.07074914
-3.4365795	especial	-0.07074914
-3.4365795	taken	-0.07074914
-3.23774	look	-0.07074914
-3.4365795	approached	-0.07074914
-3.4365795	bier	-0.07074914
-3.4365795	prostrated	-0.07074914
-3.23774	floor	-0.07074914
-3.4365795	rose	-0.07074914
-3.4365795	almost	-0.07074914
-3.4365795	corpse	-0.07074914
-3.4365795	itself	-0.07074914
-3.4365795	steps	-0.07074914
-3.4365795	casket	-0.07074914
-3.4365795	rigid	-0.07074914
-3.4365795	glance	-0.07074914
-3.23774	mockingly	-0.07074914
-3.4365795	closing	-0.07074914
-3.4365795	eye	-0.07074914
-3.0845175	turned	-0.07074914
-3.4365795	abruptly	-0.07074914
-3.0845175	away	-0.07074914
-3.4365795	false	-0.07074914
-3.23774	step	-0.07074914
-3.4365795	fell	-0.07074914
-3.4365795	same	-0.07074914
-3.4365795	carried	-0.07074914
-3.4365795	faint	-0.07074914
-3.4365795	recover	-0.07074914
-3.4365795	composure	-0.07074914
-3.23774	during	-0.21679196
-3.4365795	entire	-0.07074914
-3.4365795	dined	-0.07074914
-3.4365795	out-of-the-way	-0.07074914
-3.4365795	restaurant	-0.07074914
-3.4365795	drank	-0.07074914
-3.4365795	hope	-0.07074914
-3.4365795	stifling	-0.07074914
-3.4365795	emotion	-0.07074914
-3.4365795	stimulate	-0.07074914
-3.4365795	home	-0.07074914
-3.23774	bed	-0.07074914
-3.4365795	undressing	-0.07074914
-3.4365795	awoke	-0.07074914
-3.4365795	start;	-0.07074914
-3.4365795	moon	-0.07074914
-3.23774	shone	-0.07074914
-3.4365795	everything	-0.07074914
-3.4365795	plainly	-0.07074914
-3.4365795	visible	-0.07074914
-3.4365795	quickly	-0.07074914
-3.4365795	disappeared	-0.07074914
-3.23774	paid	-0.07074914
-3.4365795	orderly	-0.07074914
-3.4365795	returning	-0.07074914
-3.4365795	late	-0.07074914
-3.4365795	drunk	-0.07074914
-3.4365795	unfamiliar	-0.07074914
-3.4365795	shuffling	-0.07074914
-3.4365795	loose	-0.07074914
-3.4365795	slippers	-0.07074914
-3.4365795	white	-0.07074914
-3.4365795	terrified	-0.07074914
-3.4365795	recognized	-0.07074914
-3.4365795	against	-0.07074914
-3.4365795	abruptly;	-0.07074914
-3.4365795	commanded	-0.07074914
-3.4365795	grant	-0.07074914
-3.4365795	request	-0.07074914
-2.9409542	tray	-0.1833903
-3.0845175	seven	-0.07074914
-2.7470047	ace	-0.10771374
-3.4365795	twenty-four	-0.07074914
-3.4365795	elapse	-0.07074914
-3.4365795	between	-0.07074914
-3.4365795	used	-0.07074914
-3.4365795	fantom	-0.07074914
-3.4365795	outside	-0.07074914
-3.4365795	form	-0.07074914
-3.4365795	pass	-0.07074914
-3.4365795	hall	-0.07074914
-3.4365795	lay	-0.07074914
-3.4365795	closed	-0.07074914
-3.4365795	finding	-0.07074914
-3.4365795	trace	-0.07074914
-3.4365795	visitor	-0.07074914
-3.4365795	candle	-0.07074914
-3.4365795	fixed	-0.07074914
-3.23774	ideas	-0.07074914
-3.4365795	cannot	-0.07074914
-3.4365795	exist	-0.07074914
-3.4365795	brain	-0.07074914
-3.4365795	bodies	-0.07074914
-3.4365795	occupy	-0.07074914
-3.4365795	space	-0.07074914
-3.4365795	chased	-0.07074914
-3.23774	thoughts	-0.07074914
-3.4365795	merged	-0.07074914
-3.4365795	single	-0.07074914
-3.4365795	one:	-0.07074914
-3.4365795	advantage	-0.07074914
-3.4365795	dearly	-0.07074914
-3.4365795	resigning	-0.07074914
-3.4365795	commission	-0.07074914
-3.4365795	conquered	-0.07074914
-3.4365795	rescued	-0.07074914
-2.8332415	tchekalinsky	-0.114192404
-3.4365795	whole	-0.07074914
-3.23774	club	-0.07074914
-3.4365795	st	-0.07074914
-3.4365795	petersburg	-0.07074914
-3.4365795	experience	-0.07074914
-3.4365795	secured	-0.07074914
-3.4365795	confidence	-0.07074914
-3.4365795	companions	-0.07074914
-3.4365795	hospitality	-0.07074914
-3.23774	genial	-0.07074914
-3.4365795	humor	-0.07074914
-3.4365795	conciliated	-0.07074914
-3.23774	society	-0.07074914
-3.4365795	gilded	-0.07074914
-3.4365795	flocked	-0.07074914
-3.23774	around	-0.07074914
-3.4365795	neglecting	-0.07074914
-3.4365795	preferring	-0.07074914
-3.4365795	charms	-0.07074914
-3.4365795	sweethearts	-0.07074914
-3.4365795	invited	-0.07074914
-3.4365795	accompany	-0.07074914
-3.23774	accepted	-0.07074914
-3.4365795	invitation	-0.07074914
-3.4365795	too	-0.07074914
-3.4365795	willingly	-0.07074914
-3.4365795	officers	-0.07074914
-3.4365795	apartments	-0.07074914
-3.4365795	full	-0.07074914
-3.4365795	generals	-0.07074914
-3.4365795	statesmen	-0.07074914
-3.4365795	whist;	-0.07074914
-3.4365795	lounged	-0.07074914
-3.4365795	sofas	-0.07074914
-3.4365795	eating	-0.07074914
-3.4365795	ices	-0.07074914
-3.4365795	smoking	-0.07074914
-3.4365795	principal	-0.07074914
-3.4365795	salon	-0.07074914
-3.4365795	twenty	-0.07074914
-3.4365795	establishment	-0.07074914
-3.4365795	banker	-0.07074914
-3.4365795	gray-haired	-0.07074914
-3.4365795	respectable	-0.07074914
-3.4365795	ruddy	-0.07074914
-3.4365795	humor;	-0.07074914
-3.4365795	sparkled	-0.07074914
-3.4365795	constant	-0.07074914
-3.4365795	hovered	-0.07074914
-3.4365795	presented	-0.07074914
-3.4365795	cordial	-0.07074914
-3.4365795	handshake	-0.07074914
-3.4365795	begged	-0.07074914
-3.4365795	stand	-0.07074914
-3.4365795	ceremony	-0.07074914
-3.23774	dealing	-0.07074914
-3.4365795	thirty	-0.07074914
-3.4365795	already	-0.07074914
-3.4365795	coup	-0.07074914
-3.4365795	allow	-0.07074914
-3.4365795	punters	-0.07074914
-3.4365795	recognize	-0.07074914
-3.4365795	gains	-0.07074914
-3.4365795	losses	-0.07074914
-3.4365795	politely	-0.07074914
-3.4365795	answering	-0.07074914
-3.4365795	questions	-0.07074914
-3.23774	constantly	-0.07074914
-3.4365795	smiling	-0.07074914
-3.4365795	shuffled	-0.07074914
-3.4365795	"permit	-0.07074914
-3.4365795	choose	-0.07074914
-3.4365795	stretching	-0.07074914
-3.4365795	portly	-0.07074914
-3.4365795	gentleman	-0.07074914
-3.4365795	reach	-0.07074914
-3.4365795	livret	-0.07074914
-3.4365795	bowed	-0.07074914
-3.4365795	replying	-0.07074914
-3.4365795	amount	-0.07074914
-3.0845175	stake	-0.07074914
-3.4365795	piece	-0.07074914
-3.4365795	chalk	-0.07074914
-3.4365795	banker;	-0.07074914
-3.4365795	"excuse	-0.07074914
-3.4365795	sir	-0.07074914
-3.4365795	well	-0.07074914
-3.4365795	"forty	-0.07074914
-3.4365795	coolly	-0.07074914
-3.4365795	instantly	-0.07074914
-3.4365795	speaker	-0.07074914
-3.4365795	"he	-0.07074914
-3.4365795	wits	-0.07074914
-3.4365795	"allow	-0.07074914
-3.4365795	observe	-0.07074914
-3.4365795	eternal	-0.07074914
-3.4365795	"that	-0.07074914
-3.4365795	excessive	-0.07074914
-3.4365795	nettled	-0.07074914
-3.4365795	"do	-0.07074914
-3.4365795	accept	-0.07074914
-3.4365795	nodded	-0.07074914
-3.4365795	assent	-0.07074914
-3.4365795	remind	-0.07074914
-3.4365795	cash	-0.07074914
-3.4365795	necessary;	-0.07074914
-3.4365795	order	-0.07074914
-3.4365795	patrons	-0.07074914
-3.4365795	prefer	-0.07074914
-3.4365795	ready	-0.07074914
-3.4365795	bank-check	-0.07074914
-3.4365795	handed	-0.07074914
-3.4365795	latter	-0.07074914
-3.4365795	examined	-0.07074914
-3.4365795	attentively	-0.07074914
-3.4365795	laid	-0.07074914
-3.4365795	chosen	-0.07074914
-3.4365795	dealing:	-0.07074914
-3.4365795	right	-0.07074914
-3.4365795	nine;	-0.07074914
-3.23774	wins	-0.21679196
-3.23774	showing	-0.21679196
-3.4365795	held--a	-0.07074914
-3.4365795	murmur	-0.07074914
-3.4365795	ran	-0.07074914
-3.4365795	crowd	-0.07074914
-3.4365795	frowned	-0.07074914
-3.4365795	roll	-0.07074914
-3.4365795	bank-bills	-0.07074914
-3.23774	counted	-0.21679196
-3.4365795	required	-0.07074914
-3.4365795	once	-0.07074914
-3.4365795	place	-0.07074914
-3.4365795	eyed	-0.07074914
-3.4365795	curiously	-0.07074914
-3.4365795	greeted	-0.07074914
-3.4365795	cordially	-0.07074914
-3.23774	selected	-0.07074914
-3.4365795	placed	-0.07074914
-3.4365795	fresh	-0.07074914
-3.4365795	showed	-0.07074914
-3.4365795	card--a	-0.07074914
-3.4365795	spot	-0.07074914
-3.4365795	onlookers	-0.07074914
-3.4365795	visibly	-0.07074914
-3.4365795	disturbed	-0.07074914
-3.4365795	ninety-four-thousand	-0.07074914
-3.4365795	surprise	-0.07074914
-3.4365795	following	-0.07074914
-3.4365795	signal	-0.07074914
-3.4365795	cessation	-0.07074914
-3.4365795	occupation	-0.07074914
-3.4365795	eager	-0.07074914
-3.4365795	watch	-0.07074914
-3.4365795	developments	-0.07074914
-3.4365795	events	-0.07074914
-3.4365795	card--an	-0.07074914
-3.4365795	began:	-0.07074914
-3.4365795	queen;	-0.07074914
-3.4365795	glancing	-0.07074914
-3.4365795	"your	-0.07074914
-3.0845175	queen	-0.07074914
-3.4365795	killed	-0.07074914
-3.4365795	quietly	-0.07074914
-3.4365795	trembled;	-0.07074914
-3.4365795	looking	-0.07074914
-3.4365795	spades	-0.07074914
-3.4365795	scarcely	-0.07074914
-3.4365795	impossible	-0.07074914
-3.4365795	mistake	-0.07074914
-3.4365795	stared	-0.07074914
-3.4365795	winked	-0.07074914
-3.4365795	involuntarily	-0.07074914
-3.4365795	croupier	-0.07074914
-3.4365795	raked	-0.07074914
-3.4365795	stupid	-0.07074914
-3.4365795	pass;	-0.07074914
-3.4365795	lunatic	-0.07074914
-3.4365795	confined	-0.07074914
-3.4365795	hospital	-0.07074914
-3.4365795	oboukov	-0.07074914
-3.4365795	spoke	-0.07074914
-3.4365795	kept	-0.07074914
-3.4365795	murmuring	-0.07074914
-3.4365795	monotonous	-0.07074914
-3.4365795	tone:	-0.07074914

\2-grams:
-0.30839735	<s> </s>	0
-0.556144	. </s>	0
-1.2557406	" </s>	0
-0.81623983	"no--" </s>	0
-1.3987483	' </s>	0
-0.81623983	continued: </s>	0
-0.81623983	following: </s>	0
-0.81623983	and--" </s>	0
-1.6353515	! </s>	0
-3.1385982	<s> ﻿at	-0.025297174
-1.0701041	<s> the	-0.074052505
-0.7492039	﻿at the	-0.025297174
-0.6586233	of the	-0.07050749
-1.3155434	, the	-0.025297202
-0.5929016	in the	-0.045436323
-1.0766405	. the	-0.050894987
-0.52022374	at the	-0.08714733
-1.1340102	was the	-0.025297202
-0.87825406	to the	-0.16597822
-0.7388944	with the	-0.025297202
-0.7492039	relish; the	-0.025297174
-0.4572592	on the	-0.05236235
-1.3858377	and the	-0.025297174
-0.7492039	under the	-0.025297174
-1.3071454	said the	-0.025297174
-1.1074749	as the	-0.1121475
-0.987206	keep the	-0.025297174
-0.87145257	that the	-0.025297202
-1.3481314	you the	-0.025297174
-1.3820544	are the	-0.025297174
-0.79846644	all the	-0.025297174
-1.4429365	me the	-0.025297174
-0.6569092	replied the	-0.025297174
-1.1388392	"but the	-0.025297174
-0.7492039	sacrifice the	-0.025297174
-0.76029	for the	-0.025297174
-1.2767075	see the	-0.025297174
-0.7403201	heard the	-0.025297174
-1.1082678	while the	-0.025297174
-1.3820544	told the	-0.025297174
-1.3941271	but the	-0.025297174
-1.276196	him the	-0.025297174
-1.1082678	finally the	-0.025297174
-1.3965989	about the	-0.025297174
-0.987206	discovered the	-0.025297174
-0.6569092	found the	-0.025297174
-0.7492039	painted the	-0.025297174
-0.6827066	by the	-0.025297174
-0.7492039	telling the	-0.025297174
-1.3491081	upon the	-0.025297174
-0.85461223	after the	-0.025297174
-1.1415366	not the	-0.025297174
-1.3701489	made the	-0.025297174
-1.1609788	out the	-0.025297174
-0.7492039	"perhaps the	-0.025297174
-1.1082678	being the	-0.025297174
-0.7492039	dawning the	-0.025297174
-0.92766786	up the	-0.025297174
-1.2619126	before the	-0.025297174
-0.987206	cried the	-0.025297174
-0.6569092	entered the	-0.025297174
-0.7492039	remarks the	-0.025297174
-1.211588	asked the	-0.025297174
-0.7403201	left the	-0.163094
-0.7492039	street; the	-0.025297174
-0.6569092	over the	-0.025297174
-0.8064092	saw the	-0.025297174
-0.7492039	"if the	-0.025297174
-0.7492039	reveal the	-0.025297174
-0.7492039	watching the	-0.025297174
-0.5459027	enter the	-0.025297174
-0.740555	into the	-0.025297174
-1.1082678	put the	-0.025297174
-0.82923186	from the	-0.025297174
-0.987206	read the	-0.025297174
-1.1082678	wrote the	-0.025297174
-0.7492039	crossed the	-0.025297174
-0.7492039	understanding the	-0.025297174
-0.7492039	ascend the	-0.025297174
-0.987206	behind the	-0.025297174
-0.6569092	find the	-0.025297174
-0.7492039	reached the	-0.025297174
-0.7492039	await the	-0.025297174
-0.7492039	watched the	-0.025297174
-1.2619126	when the	-0.025297174
-0.7492039	noise the	-0.025297174
-0.7492039	pleaded the	-0.025297174
-1.382796	! the	-0.025297174
-0.7492039	weapon the	-0.025297174
-0.987206	"of the	-0.025297174
-1.2373883	has the	-0.025297174
-0.7492039	"in the	-0.025297174
-0.987206	through the	-0.025297174
-0.7492039	her; the	-0.025297174
-0.987206	open the	-0.025297174
-0.7492039	pressed the	-0.025297174
-0.7492039	approached the	-0.025297174
-1.1082678	away the	-0.025297174
-0.38420552	during the	-0.025297174
-0.7492039	start; the	-0.025297174
-0.7492039	recognized the	-0.025297174
-0.7492039	between the	-0.025297174
-0.7492039	pass the	-0.025297174
-0.7492039	occupy the	-0.025297174
-0.7492039	advantage the	-0.025297174
-0.7492039	preferring the	-0.025297174
-0.987206	accepted the	-0.025297174
-0.7492039	allow the	-0.025297174
-0.7492039	prefer the	-0.025297174
-0.38420552	showing the	-0.025297174
-0.7492039	watch the	-0.025297174
-0.7492039	pass; the	-0.025297174
-2.2681937	the house	-0.025297174
-1.1498995	house of	-0.025297174
-1.9308796	, of	-0.025297174
-1.4776504	officer of	-0.025297174
-2.1204946	. of	-0.025297174
-0.7669271	influence of	-0.025297174
-1.2944174	host of	-0.025297174
-1.6477232	that of	-0.025297174
-0.70469254	one of	-0.07529853
-1.0183364	rest of	-0.025297174
-1.5665536	all of	-0.025297174
-1.5259196	me of	-0.025297174
-0.7669271	necessaries of	-0.025297174
-1.4426031	tomsky of	-0.025297174
-0.7669271	chorus of	-0.025297174
-1.3749254	woman of	-0.025297174
-1.315133	heard of	-0.025297174
-0.7669271	duke of	-0.163094
-1.0183364	husband of	-0.025297174
-0.7669271	friend of	-0.025297174
-0.7669271	elixir of	-0.025297174
-0.7669271	cruelty of	-0.025297174
-1.0183364	moment of	-0.025297174
-1.2944174	way of	-0.025297174
-1.0183364	need of	-0.025297174
-1.2944174	any of	-0.025297174
-0.54869926	out of	-0.2694304
-0.7669271	air of	-0.025297174
-1.2344539	word of	-0.025297174
-1.0183364	use of	-0.025297174
-0.7669271	habits of	-0.025297174
-0.7669271	favor of	-0.163094
-1.0183364	"what of	-0.025297174
-0.7669271	corner of	-0.025297174
-1.1498995	head of	-0.025297174
-1.0183364	appearance of	-0.025297174
-1.4270755	man of	-0.025297174
-1.358669	thought of	-0.025297174
-1.3395505	face of	-0.025297174
-1.1498995	return of	-0.025297174
-0.7669271	state of	-0.025297174
-0.7669271	declaration of	-0.025297174
-0.7669271	lines of	-0.025297174
-1.0183364	heart of	-0.025297174
-1.4034859	door of	-0.025297174
-1.1498995	bedchamber of	-0.025297174
-1.0183364	instead of	-0.025297174
-0.3895927	sound of	-0.025297174
-1.0183364	ball-dress of	-0.025297174
-0.7669271	habit of	-0.025297174
-1.0183364	expression of	-0.025297174
-0.7669271	beg of	-0.025297174
-0.7669271	names of	-0.025297174
-0.3895927	sight of	-0.025297174
-0.7669271	sign of	-0.025297174
-0.7669271	profile of	-0.025297174
-0.7669271	regret of	-0.025297174
-0.7669271	words of	-0.163094
-0.7669271	thinking of	-0.025297174
-0.7669271	cause of	-0.025297174
-1.0183364	death of	-0.025297174
-0.7669271	feeling of	-0.025297174
-1.0183364	those of	-0.025297174
-0.7669271	result of	-0.025297174
-0.7669271	hope of	-0.025297174
-0.7669271	trace of	-0.025297174
-1.0183364	brain of	-0.025297174
-1.0183364	thoughts of	-0.025297174
-0.7669271	confidence of	-0.025297174
-0.7669271	charms of	-0.025297174
-0.7669271	amount of	-0.025297174
-0.7669271	piece of	-0.025297174
-0.7669271	necessary; of	-0.025297174
-0.7669271	roll of	-0.025297174
-0.7669271	cessation of	-0.025297174
-0.7669271	developments of	-0.025297174
-1.2344539	queen of	-0.025297174
-2.9842162	<s> naroumov	-0.025297174
-2.5890436	of naroumov	-0.025297174
-2.972445	. naroumov	-0.025297174
-0.8193688	objected naroumov	-0.025297174
-1.5819726	thought naroumov	-0.025297174
-0.98197037	house ,	-0.025297174
-1.1078395	naroumov ,	-0.025297174
-0.91091365	officer ,	-0.025297174
-0.8884227	morning ,	-0.025297174
-1.2884876	was ,	-0.025297174
-1.3686181	with ,	-0.025297174
-0.68939567	losers ,	-0.025297174
-0.68939567	contrary ,	-0.025297174
-1.2323594	and ,	-0.088753186
-0.98197037	good ,	-0.025297174
-0.8884227	wine ,	-0.025297174
-0.68939567	however ,	-0.025297174
-1.1879761	then ,	-0.025297174
-0.68939567	"well ,	-0.025297174
-0.68939567	"oh ,	-0.025297174
-0.8884227	keep ,	-0.025297174
-0.98197037	win ,	-0.025297174
-1.0327924	it ,	-0.025297174
-0.67938524	herman ,	-0.025297174
-1.0921794	you ,	-0.025297202
-0.82825017	card ,	-0.2435532
-0.95776683	one ,	-0.025297202
-0.98197037	men ,	-0.025297174
-1.2467316	all ,	-0.025297174
-0.9661077	me ,	-0.025297174
-0.68939567	greatly ,	-0.025297174
-0.68939567	addressed ,	-0.025297174
-1.0375764	life ,	-0.025297174
-0.8884227	german ,	-0.025297174
-0.86005336	tomsky ,	-0.025297174
-0.91091365	grandmother ,	-0.025297174
-1.1799922	countess ,	-0.025297174
-0.8884227	anything ,	-0.025297174
-0.8884227	fact ,	-0.025297174
-1.1214508	woman ,	-0.025297174
-0.68939567	gamble ,	-0.025297174
-1.2068069	her ,	-0.163094
-1.0271791	sixty ,	-0.025297174
-0.8884227	paris ,	-0.025297174
-0.68939567	venus ,	-0.025297174
-0.51455414	faro ,	-0.025297174
-0.68939567	occasion ,	-0.025297174
-0.8884227	orleans ,	-0.025297174
-0.8884227	debt ,	-0.025297174
-1.1761565	but ,	-0.025297174
-1.1350664	him ,	-0.025297174
-0.98197037	mind ,	-0.025297174
-0.68939567	subject ,	-0.025297174
-0.98197037	finally ,	-0.025297174
-0.68939567	hers ,	-0.025297174
-1.0375764	count ,	-0.025297174
-0.68939567	stone ,	-0.025297174
-0.851462	money ,	-0.025297174
-0.68939567	disposal ,	-0.025297174
-0.68939567	colors ,	-0.025297174
-0.8884227	moment ,	-0.025297174
-0.68939567	thoughtfulness ,	-0.025297174
-1.2266895	not ,	-0.025297174
-1.1013623	returned ,	-0.025297174
-1.1607994	only ,	-0.025297174
-1.0747136	there ,	-0.025297174
-1.0375764	deal ,	-0.025297174
-0.68939567	pipe ,	-0.025297174
-0.68939567	whiffs ,	-0.025297174
-0.98197037	evening ,	-0.025297174
-0.5334764	cards ,	-0.025297174
-0.8884227	succession ,	-0.025297174
-1.2778707	again ,	-0.025297174
-0.7448057	time ,	-0.025297174
-1.0375764	soon ,	-0.025297174
-1.3176866	out ,	-0.025297174
-0.68939567	fable ,	-0.025297174
-1.0747136	so ,	-0.025297174
-1.130584	who ,	-0.025297174
-0.68939567	sons ,	-0.025297174
-0.68939567	father ,	-0.025297174
-1.1687992	this ,	-0.025297174
-1.0375764	much ,	-0.025297174
-0.36487404	tchaplitzky ,	-0.163094
-0.68939567	millions ,	-0.025297174
-0.8884227	play ,	-0.025297174
-1.0375764	rubles ,	-0.025297174
-0.8884227	game ,	-0.025297174
-0.68939567	ahead ,	-0.025297174
-0.98197037	day ,	-0.025297174
-0.8635503	up ,	-0.025297174
-0.8884227	leave ,	-0.025297174
-0.68939567	beauty ,	-0.025297174
-0.8884227	youth ,	-0.025297174
-1.0375764	window ,	-0.025297174
-1.1475917	girl ,	-0.025297174
-0.68939567	ward ,	-0.025297174
-0.68939567	afternoon ,	-0.025297174
-0.58570385	room ,	-0.025297174
-0.8884227	"what ,	-0.025297174
-1.0375764	ball ,	-0.025297174
-1.1056132	reply ,	-0.025297174
-1.1078395	left ,	-0.1121475
-0.98197037	herself ,	-0.025297174
-1.0758111	over ,	-0.025297174
-1.1497678	man ,	-0.025297174
-1.130584	saw ,	-0.025297174
-0.98197037	street ,	-0.025297174
-1.0375764	smile ,	-0.025297174
-0.68939567	admirer ,	-0.025297174
-0.68939567	gambler ,	-0.025297174
-0.68939567	"ah ,	-0.025297174
-0.7448057	thought ,	-0.025297174
-1.1013623	face ,	-0.025297174
-0.98197037	hand ,	-0.025297174
-0.8884227	turning ,	-0.025297174
-0.68939567	drive ,	-0.025297174
-0.98197037	chamber ,	-0.025297174
-0.68939567	missive ,	-0.025297174
-1.0271791	fear ,	-0.025297174
-0.68939567	affection ,	-0.025297174
-1.0375764	lisa ,	-0.025297174
-0.8884227	course ,	-0.025297174
-0.8884227	opportunity ,	-0.025297174
-0.68939567	letter ,	-0.025297174
-0.68939567	rebuff ,	-0.025297174
-0.8884227	heart ,	-0.025297174
-0.68939567	presevered ,	-0.025297174
-0.68939567	departure ,	-0.025297174
-1.1078395	will ,	-0.025297174
-0.68939567	boldly ,	-0.025297174
-0.68939567	stairs ,	-0.025297174
-1.1371512	door ,	-0.025297174
-0.8884227	screen ,	-0.025297174
-0.8884227	staircase ,	-0.025297174
-0.68939567	fully ,	-0.025297174
-0.68939567	gown ,	-0.025297174
-0.8884227	ball-dress ,	-0.025297174
-1.1013623	down ,	-0.025297174
-0.4408984	table ,	-0.025297174
-0.68939567	retiring ,	-0.025297174
-0.68939567	fro ,	-0.025297174
-0.68939567	surroundings ,	-0.025297174
-0.6145962	opened ,	-0.163094
-1.1078395	eyes ,	-0.025297174
-0.8884227	silence ,	-0.025297174
-0.68939567	deaf ,	-0.025297174
-1.0271791	close ,	-0.025297174
-0.68939567	jest ,	-0.025297174
-0.8884227	pocket ,	-0.025297174
-0.68939567	witch ,	-0.025297174
-0.68939567	roughly ,	-0.025297174
-0.68939567	threats ,	-0.025297174
-1.0375764	dead ,	-0.025297174
-0.68939567	enough ,	-0.025297174
-0.68939567	alarm ,	-0.025297174
-0.68939567	church ,	-0.025297174
-0.68939567	perhaps ,	-0.025297174
-0.8884227	point ,	-0.025297174
-0.68939567	"furthermore ,	-0.025297174
-0.68939567	letters ,	-0.025297174
-0.98197037	exclaimed ,	-0.025297174
-0.8884227	asleep ,	-0.025297174
-0.8884227	alone ,	-0.025297174
-0.8884227	cold ,	-0.025297174
-0.8884227	floor ,	-0.025297174
-0.68939567	itself ,	-0.025297174
-0.8884227	mockingly ,	-0.025297174
-0.98197037	away ,	-0.025297174
-0.8884227	step ,	-0.025297174
-0.68939567	restaurant ,	-0.025297174
-0.8884227	bed ,	-0.025297174
-0.8884227	orderly ,	-0.025297174
-0.68939567	late ,	-0.025297174
-0.7012515	tray ,	-0.4750883
-0.98197037	seven ,	-0.088753186
-0.68939567	hall ,	-0.025297174
-0.68939567	visitor ,	-0.025297174
-0.68939567	candle ,	-0.025297174
-0.7448057	tchekalinsky ,	-0.025297174
-0.8884227	club ,	-0.025297174
-0.68939567	companions ,	-0.025297174
-0.8884227	society ,	-0.025297174
-0.68939567	sofas ,	-0.025297174
-0.68939567	handshake ,	-0.025297174
-0.68939567	ceremony ,	-0.025297174
-0.68939567	coup ,	-0.025297174
-0.68939567	losses ,	-0.025297174
-0.8884227	shuffled ,	-0.025297174
-0.68939567	gentleman ,	-0.025297174
-0.68939567	sir ,	-0.025297174
-0.68939567	wits ,	-0.025297174
-0.68939567	observe ,	-0.025297174
-0.68939567	patrons ,	-0.025297174
-0.68939567	attentively ,	-0.025297174
-0.68939567	right ,	-0.35014957
-0.36487404	wins ,	-0.163094
-0.68939567	curiously ,	-0.025297174
-0.8884227	selected ,	-0.025297174
-0.68939567	surprise ,	-0.025297174
-0.68939567	occupation ,	-0.025297174
-0.68939567	killed ,	-0.025297174
-0.68939567	oboukov ,	-0.025297174
-2.2829592	<s> a	-0.025297174
-1.4464078	of a	-0.025297174
-1.6842446	, a	-0.055867255
-0.8828814	in a	-0.025297174
-1.5365041	was a	-0.025297174
-1.6753908	to a	-0.025297174
-0.65105927	with a	-0.025297174
-1.2712615	and a	-0.025297202
-1.0505328	became a	-0.025297174
-1.6530825	is a	-0.025297174
-1.7558397	that a	-0.025297174
-0.7846791	touch a	-0.025297174
-0.7846791	addressing a	-0.025297174
-1.5369719	are a	-0.025297174
-1.6296909	have a	-0.025297174
-1.0162919	for a	-0.025297174
-1.0505328	inquired a	-0.025297174
-1.8233572	her a	-0.025297174
-1.1940849	get a	-0.025297174
-1.8412374	he a	-0.025297174
-1.3752768	him a	-0.025297174
-0.7846791	remembered a	-0.025297174
-0.89182585	after a	-0.025297174
-0.7846791	enjoy a	-0.025297174
-0.9542636	only a	-0.025297174
-0.7846791	give a	-0.025297174
-0.64605665	took a	-0.025297174
-0.9581464	made a	-0.025297174
-1.0505328	chose a	-0.025297174
-1.560389	this a	-0.025297174
-1.2887532	window a	-0.025297174
-1.0505328	cried a	-0.025297174
-1.3057828	entered a	-0.025297174
-1.0505328	ask a	-0.163094
-0.7846791	become a	-0.025297174
-1.0505328	such a	-0.025297174
-1.5340313	into a	-0.025297174
-1.605957	from a	-0.025297174
-1.1940849	wrote a	-0.025297174
-1.0505328	behind a	-0.025297174
-0.7846791	like a	-0.025297174
-1.1940849	drew a	-0.025297174
-0.7846791	beside a	-0.025297174
-1.3057828	opened a	-0.025297174
-1.0505328	force a	-0.025297174
-1.3057828	gave a	-0.025297174
-0.7846791	"is a	-0.025297174
-1.0505328	stood a	-0.025297174
-0.7846791	drank a	-0.025297174
-0.7846791	choose a	-0.025297174
-0.7846791	reach a	-0.025297174
-2.7062454	a cavalry	-0.025297174
-2.0130725	the officer	-0.025297174
-0.8209417	cavalry officer	-0.025297174
-1.0050551	young officer	-0.06041553
-2.8601098	the long	-0.025297174
-2.0132205	a long	-0.025297174
-2.0749857	had long	-0.025297174
-2.4402585	his long	-0.025297174
-1.5174593	long winter	-0.025297174
-2.3828213	the night	-0.025297174
-0.8193688	winter night	-0.025297174
-2.002404	all night	-0.025297174
-1.1168393	very night	-0.025297174
-0.8193688	tuesday night	-0.025297174
-1.7781346	officer had	-0.025297174
-1.5574927	night had	-0.025297174
-2.0742958	it had	-0.025297174
-2.1735022	you had	-0.025297174
-1.7062457	tomsky had	-0.025297174
-1.7443055	countess had	-0.025297174
-1.1118512	she had	-0.025297174
-1.6042593	he had	-0.025297174
-0.8733652	who had	-0.025297174
-1.1060728	friends had	-0.025297174
-1.1060728	imagination had	-0.025297174
-0.8139078	adventure had	-0.025297174
-1.5042727	long been	-0.025297174
-1.1840909	had been	-0.025297174
-2.2975752	you been	-0.025297174
-1.241962	have been	-0.025297174
-0.8193688	sense been	-0.025297174
-2.0749857	had passed	-0.025297174
-1.7041137	been passed	-0.025297174
-2.55978	and passed	-0.025297174
-0.8201545	agitation passed	-0.025297174
-2.4043212	<s> in	-0.025297174
-1.976136	, in	-0.1121475
-1.7758896	had in	-0.025297174
-1.3224149	passed in	-0.025297174
-2.3979044	. in	-0.025297174
-1.0696633	five in	-0.025297174
-1.9161708	was in	-0.025297174
-1.8786938	on in	-0.025297174
-1.0696633	o'clock in	-0.025297174
-0.7949466	striking in	-0.025297174
-1.5018145	woman in	-0.025297174
-1.5064328	her in	-0.025297174
-1.3224149	other in	-0.025297174
-1.0696633	husband in	-0.025297174
-1.6469923	but in	-0.025297174
-1.8615875	him in	-0.025297174
-0.5763534	note in	-0.025297174
-1.622028	cards in	-0.025297174
-1.7809297	out in	-0.025297174
-0.7949466	died in	-0.025297174
-1.0696633	seated in	-0.025297174
-0.7949466	mirror in	-0.025297174
-1.0696633	still in	-0.025297174
-0.6880941	asked in	-0.025297174
-0.7949466	idea in	-0.025297174
-0.7949466	meeting in	-0.025297174
-1.2209449	himself in	-0.025297174
-0.7949466	attired in	-0.025297174
-1.3970597	looked in	-0.025297174
-1.4550618	down in	-0.025297174
-1.0696633	point in	-0.025297174
-0.7949466	accomplice in	-0.025297174
-1.5132331	ace in	-0.025297174
-0.7949466	exist in	-0.025297174
-0.7949466	nodded in	-0.025297174
-0.7949466	raked in	-0.025297174
-0.7949466	murmuring in	-0.025297174
-3.0023956	the gambling	-0.025297174
-2.4224238	in gambling	-0.025297174
-0.68795973	naroumov .	-0.163094
-1.1871872	officer .	-0.025297174
-0.58570385	night .	-0.1121475
-0.8884227	gambling .	-0.025297174
-0.68939567	players .	-0.025297174
-1.3833779	on .	-0.025297174
-1.1607994	sat .	-0.025297174
-0.68939567	gloomily .	-0.025297174
-1.1879761	then .	-0.025297174
-0.68939567	general .	-0.025297174
-1.0747136	host .	-0.025297174
-0.68939567	inquiringly .	-0.025297174
-0.8884227	usual .	-0.025297174
-0.68939567	abominable .	-0.025297174
-0.98197037	win .	-0.025297174
-0.76263905	it .	-0.025297202
-1.0745561	herman .	-0.025297174
-1.1693014	you .	-0.163094
-0.68939567	corps .	-0.025297174
-1.1876087	are .	-0.025297174
-0.8884227	o'clock .	-0.025297174
-1.2467316	all .	-0.025297174
-1.22751	me .	-0.025297174
-1.0375764	life .	-0.025297174
-0.68939567	superfluities .	-0.025297174
-1.1713572	tomsky .	-0.025297174
-1.1871872	grandmother .	-0.025297174
-0.887287	countess .	-0.1121475
-0.8884227	fedorovna .	-0.025297174
-0.68939567	voices .	-0.025297174
-0.68939567	gambles .	-0.025297174
-1.1078395	heard .	-0.025297174
-1.1503599	her .	-0.025297174
-0.68939567	fashion .	-0.025297174
-0.68939567	called .	-0.025297174
-0.36487404	sum .	-0.025297174
-0.8884227	debt .	-0.025297174
-1.0302442	him .	-0.025297174
-0.98197037	mind .	-0.025297174
-0.68939567	ends .	-0.025297174
-0.68939567	saint-germain .	-0.025297174
-1.1948892	about .	-0.025297174
-0.8884227	discovered .	-0.025297174
-0.68939567	things .	-0.025297174
-0.851462	money .	-0.025297174
-0.68939567	distress .	-0.025297174
-0.68939567	generosity .	-0.025297174
-0.98197037	know .	-0.025297174
-1.0144649	not .	-0.025297174
-1.1013623	returned .	-0.025297174
-0.36487404	embarrassment .	-0.025297174
-1.0747136	there .	-0.025297174
-1.0747136	way .	-0.025297174
-0.68939567	yourself .	-0.025297174
-1.0747136	secret .	-0.025297174
-0.51455414	attention .	-0.025297174
-0.68939567	gaming-table .	-0.025297174
-0.68939567	dealer .	-0.025297174
-0.68939567	punt .	-0.025297174
-1.2559226	cards .	-0.025297174
-0.35193658	again .	-0.025297202
-1.130584	time .	-0.025297174
-1.3176866	out .	-0.025297174
-0.68939567	marked .	-0.025297174
-1.0747136	so .	-0.025297174
-0.68939567	importance .	-0.025297174
-0.7448057	them .	-0.025297174
-0.68939567	honor .	-0.025297174
-1.0375764	rubles .	-0.025297174
-0.68939567	debts .	-0.163094
-0.98197037	day .	-0.025297174
-0.8884227	leave .	-0.025297174
-1.1078395	before .	-0.025297174
-0.68939567	dressing-room .	-0.025297174
-0.8884227	toilet .	-0.025297174
-1.0375764	window .	-0.025297174
-0.79051	girl .	-0.1121475
-0.68939567	needlework .	-0.025297174
-1.0758111	entered .	-0.025297174
-1.1529319	room .	-0.025297174
-1.1013623	be .	-0.025297174
-1.0375764	ball .	-0.025297174
-0.68939567	"yes .	-0.025297174
-0.4408984	reply .	-0.34046322
-0.68939567	canvas .	-0.025297174
-0.68939567	occurrence .	-0.025297174
-0.98197037	street .	-0.025297174
-0.68939567	presence .	-0.025297174
-0.8884227	imagination .	-0.025297174
-0.8884227	fate .	-0.025297174
-0.8884227	desired .	-0.025297174
-0.68939567	acquaintance .	-0.025297174
-0.8884227	carriage .	-0.025297174
-0.98197037	hand .	-0.025297174
-0.68939567	elbow .	-0.025297174
-0.98197037	return .	-0.025297174
-0.98197037	chamber .	-0.025297174
-0.51455414	fear .	-0.025297174
-0.68939567	novel .	-0.025297174
-1.0375764	lisa .	-0.025297174
-0.68939567	ignorant .	-0.025297174
-0.68939567	encouraged .	-0.025297174
-0.68939567	days .	-0.025297174
-0.68939567	interview .	-0.025297174
-0.68939567	sleep .	-0.025297174
-1.1371512	door .	-0.025297174
-0.98197037	bedchamber .	-0.025297174
-0.68939567	sitting-room .	-0.025297174
-0.68939567	near .	-0.025297174
-0.68939567	difficulty .	-0.025297174
-0.8884227	instead .	-0.025297174
-0.68939567	wheels .	-0.025297174
-0.68939567	exhausted .	-0.025297174
-0.68939567	brocade .	-0.025297174
-1.1056132	table .	-0.025297174
-0.36487404	withdrew .	-0.025297174
-0.68939567	hiding-place .	-0.025297174
-0.68795973	eyes .	-0.025297174
-0.8884227	expression .	-0.025297174
-0.68939567	voice .	-0.025297174
-0.8884227	silence .	-0.025297174
-0.6145962	lips .	-0.163094
-0.68939567	remark .	-0.025297174
-0.68939567	mute .	-0.025297174
-0.68939567	speak .	-0.025297174
-0.68939567	apathy .	-0.025297174
-0.68939567	pause .	-0.025297174
-0.8884227	motionless .	-0.025297174
-0.68939567	reflections .	-0.025297174
-0.8884227	expected .	-0.025297174
-0.8884227	did .	-0.025297174
-0.68939567	mephistopheles .	-0.025297174
-0.68939567	conscience .	-0.025297174
-0.68939567	headache .	-0.025297174
-0.68939567	acted .	-0.025297174
-0.68939567	violently .	-0.025297174
-0.68939567	whisper .	-0.025297174
-0.8884227	death .	-0.025297174
-0.8884227	terror .	-0.025297174
-0.68939567	disgust .	-0.025297174
-0.68939567	love .	-0.025297174
-0.68939567	benefactress .	-0.025297174
-0.68939567	bitterly .	-0.025297174
-0.68939567	loaded .	-0.025297174
-0.68939567	daylight .	-0.025297174
-0.8884227	open .	-0.025297174
-0.68939567	vicinity .	-0.025297174
-0.68939567	bier .	-0.025297174
-0.8884227	floor .	-0.025297174
-0.68939567	casket .	-0.025297174
-0.8884227	mockingly .	-0.025297174
-0.8884227	eye .	-0.025297174
-0.98197037	away .	-0.025297174
-0.68939567	faint .	-0.025297174
-0.68939567	emotion .	-0.025297174
-0.68939567	undressing .	-0.025297174
-0.68939567	visible .	-0.025297174
-0.68939567	disappeared .	-0.025297174
-0.68939567	slippers .	-0.025297174
-0.68939567	request .	-0.025297174
-0.7012515	tray .	-0.163094
-0.98197037	seven .	-0.025297174
-0.79051	ace .	-0.163094
-0.68939567	closed .	-0.025297174
-0.68939567	space .	-0.025297174
-0.68939567	dearly .	-0.025297174
-0.68939567	st .	-0.025297174
-0.68939567	petersburg .	-0.025297174
-0.8884227	society .	-0.025297174
-0.68939567	sweethearts .	-0.025297174
-0.68939567	willingly .	-0.025297174
-0.68939567	full .	-0.025297174
-0.68939567	smoking .	-0.025297174
-1.0375764	banker .	-0.025297174
-0.68939567	respectable .	-0.025297174
-0.8884227	dealing .	-0.025297174
-0.68939567	smiling .	-0.025297174
-0.68939567	livret .	-0.025297174
-0.68939567	replying .	-0.025297174
-0.98197037	stake .	-0.025297174
-0.68939567	chalk .	-0.025297174
-0.68939567	well .	-0.025297174
-0.68939567	coolly .	-0.025297174
-0.68939567	speaker .	-0.025297174
-0.68939567	excessive .	-0.025297174
-0.68939567	nettled .	-0.025297174
-0.68939567	assent .	-0.025297174
-0.68939567	chosen .	-0.025297174
-0.68939567	crowd .	-0.025297174
-0.68939567	cordially .	-0.025297174
-0.68939567	spot .	-0.025297174
-0.68939567	disturbed .	-0.025297174
-0.68939567	events .	-0.025297174
-0.68939567	quietly .	-0.025297174
-0.68939567	spades .	-0.025297174
-0.68939567	mistake .	-0.025297174
-0.68939567	involuntarily .	-0.025297174
-0.68939567	lunatic .	-0.025297174
-2.1818354	<s> at	-0.163094
-1.976136	, at	-0.088753186
-1.6352311	officer at	-0.025297174
-1.4758666	night at	-0.025297174
-2.031618	in at	-0.025297174
-2.050834	. at	-0.025297174
-1.9161708	was at	-0.025297174
-1.2209449	back at	-0.025297174
-1.7248561	and at	-0.163094
-1.5514257	sat at	-0.025297174
-1.3224149	lost at	-0.025297174
-1.0696633	us at	-0.025297174
-1.3224149	life at	-0.025297174
-1.8615875	him at	-0.025297174
-0.9742293	money at	-0.025297174
-0.39780086	appeared at	-0.025297174
-0.7949466	versailles at	-0.025297174
-1.4670315	time at	-0.025297174
-0.7949466	assisting at	-0.025297174
-1.4550618	face at	-0.025297174
-0.7949466	rewarded at	-0.025297174
-0.7949466	by; at	-0.025297174
-1.4096364	when at	-0.025297174
-1.3970597	looked at	-0.025297174
-0.7949466	gazed at	-0.025297174
-1.3970597	has at	-0.025297174
-0.7949466	interrupted at	-0.025297174
-1.0696633	alone at	-0.025297174
-1.0696633	look at	-0.025297174
-1.0696633	rose at	-0.025297174
-1.0696633	eye at	-0.025297174
-1.0696633	brain at	-0.025297174
-1.0696633	club at	-0.025297174
-0.7949466	glancing at	-0.025297174
-0.7949466	stared at	-0.025297174
-0.7949466	confined at	-0.025297174
-0.7949466	hospital at	-0.025297174
-1.7338169	at five	-0.025297174
-3.0705497	the morning	-0.025297174
-1.1221948	morning breakfast	-0.025297174
-2.3049207	, was	-0.025297174
-1.6707402	officer was	-0.025297174
-0.80017287	breakfast was	-0.025297174
-2.037609	and was	-0.025297174
-1.0795541	conversation was	-0.025297174
-1.8903093	" was	-0.163094
-1.4183557	host was	-0.025297174
-1.3481146	i was	-0.025297174
-1.2394574	it was	-0.025297174
-1.6707402	grandmother was	-0.025297174
-1.6445907	countess was	-0.025297174
-1.0795541	fedorovna was	-0.025297174
-1.0895581	she was	-0.025297174
-1.0795541	orleans was	-0.025297174
-1.5363623	he was	-0.025297174
-1.4368556	note was	-0.025297174
-1.4183557	there was	-0.025297174
-1.3402777	deal was	-0.025297174
-1.2350247	day was	-0.025297174
-1.538918	girl was	-0.025297174
-0.78419966	lisaveta was	-0.025297174
-1.0795541	appearance was	-0.025297174
-1.6055379	man was	-0.025297174
-1.3402777	lisa was	-0.025297174
-1.5704335	door was	-0.025297174
-1.2466819	"it was	-0.025297174
-0.80017287	"there was	-0.025297174
-1.0795541	pistol was	-0.025297174
-0.80017287	funeral was	-0.025297174
-1.0795541	step was	-0.025297174
-2.4392877	was served	-0.025297174
-1.7156255	only served	-0.025297174
-1.6469636	, to	-0.025297174
-2.048039	. to	-0.025297174
-0.38647658	served to	-0.025297174
-1.6158147	and to	-0.025297174
-1.334542	said to	-0.025297174
-0.7467436	how to	-0.025297174
-1.334542	never to	-0.025297174
-1.6031331	it to	-0.025297174
-1.6040841	herman to	-0.025297174
-1.3742553	you to	-0.025297174
-1.4746352	have to	-0.025297174
-0.9180486	me to	-0.025297174
-0.75661415	care to	-0.025297174
-0.75661415	refuses to	-0.025297174
-0.38647658	listen to	-0.025297174
-1.3232669	went to	-0.025297174
-1.0001053	paris to	-0.025297174
-0.75661415	streets to	-0.025297174
-1.0001053	chance to	-0.025297174
-1.1536796	faro to	-0.025297174
-1.4278404	but to	-0.025297174
-0.75661415	outright to	-0.025297174
-0.8221323	him to	-0.025297202
-0.8211038	about to	-0.025297174
-0.23357977	come to	-0.025297202
-1.495026	not to	-0.025297174
-1.3021942	returned to	-0.025297174
-1.3785009	only to	-0.025297174
-0.75661415	add to	-0.025297174
-1.2606088	way to	-0.025297174
-1.2606088	secret to	-0.025297174
-1.2606088	which to	-0.025297174
-1.2048603	deal to	-0.025297174
-1.1536796	attention to	-0.025297174
-0.82079685	began to	-0.025297174
-1.3232669	time to	-0.025297174
-1.3232669	them to	-0.025297174
-0.75661415	devoted to	-0.025297174
-1.0001053	swear to	-0.025297174
-0.93565774	up to	-0.025297174
-0.75661415	pretensions to	-0.025297174
-0.75661415	clung to	-0.025297174
-0.75661415	want to	-0.025297174
-0.75661415	allowed to	-0.025297174
-1.0001053	friends to	-0.025297174
-0.75661415	wish to	-0.025297174
-1.2836384	left to	-0.025297174
-0.75661415	unknown to	-0.025297174
-0.75661415	accustomed to	-0.025297174
-0.75661415	strange to	-0.025297174
-0.75661415	ventured to	-0.025297174
-0.54964364	seemed to	-0.1121475
-0.75661415	try to	-0.025297174
-0.75661415	appeal to	-0.025297174
-0.75661415	trusting to	-0.025297174
-1.0001053	fate to	-0.025297174
-0.75661415	hastened to	-0.025297174
-1.1253967	chamber to	-0.025297174
-1.0001053	opportunity to	-0.025297174
-0.75661415	shop to	-0.025297174
-0.6620317	go to	-0.025297174
-1.2048603	if to	-0.025297174
-0.38647658	turn to	-0.025297174
-0.75661415	leading to	-0.025297174
-0.75661415	leads to	-0.025297174
-0.75661415	expect to	-0.025297174
-0.54964364	going to	-0.025297174
-0.75661415	closet to	-0.025297174
-0.75661415	proceeded to	-0.025297174
-0.75661415	swaying to	-0.025297174
-0.75661415	oblivious to	-0.025297174
-0.54964364	close to	-0.025297174
-0.75661415	sure to	-0.025297174
-0.75661415	thanks to	-0.025297174
-0.75661415	able to	-0.025297174
-1.0001053	expected to	-0.025297174
-0.75661415	relieved to	-0.025297174
-0.75661415	talk to	-0.025297174
-0.75661415	intend to	-0.025297174
-0.75661415	intended to	-0.025297174
-0.75661415	afraid to	-0.025297174
-0.75661415	steps to	-0.025297174
-0.75661415	fell to	-0.025297174
-0.75661415	commanded to	-0.025297174
-0.75661415	order to	-0.025297174
-0.75661415	dealing: to	-0.163094
-0.75661415	nine; to	-0.163094
-0.75661415	eager to	-0.025297174
-0.75661415	began: to	-0.025297174
-0.75661415	queen; to	-0.025297174
-0.75661415	spoke to	-0.025297174
-3.0705497	the weary	-0.025297174
-0.8220602	weary players	-0.025297174
-3.0705497	the winners	-0.025297174
-0.8220602	winners ate	-0.025297174
-2.672385	<s> with	-0.025297174
-2.1179607	, with	-0.025297174
-0.81004876	ate with	-0.025297174
-2.0235314	it with	-0.025297174
-1.6831206	are with	-0.025297174
-0.81004876	begin with	-0.025297174
-1.0985426	playing with	-0.025297174
-0.81004876	coquetting with	-0.025297174
-0.40207112	mingled with	-0.025297174
-1.4609091	last with	-0.025297174
-0.81004876	proceedings with	-0.025297174
-0.81004876	unmingled with	-0.025297174
-0.81004876	intruder with	-0.025297174
-0.81004876	listened with	-0.025297174
-0.81004876	key with	-0.025297174
-0.81004876	awoke with	-0.025297174
-1.0985426	shone with	-0.025297174
-2.112434	with relish;	-0.025297174
-3.0705497	the losers	-0.025297174
-2.2184827	, on	-0.025297174
-2.2855923	. on	-0.025297174
-1.9956969	it on	-0.025297174
-1.5242964	went on	-0.025297174
-1.2559651	mind on	-0.025297174
-1.4507126	there on	-0.025297174
-1.3671418	rubles on	-0.025297174
-0.8077497	pity on	-0.025297174
-1.3671418	ball on	-0.025297174
-1.5242964	saw on	-0.025297174
-0.8077497	standing on	-0.025297174
-1.3749485	go on	-0.025297174
-1.5242964	or on	-0.025297174
-1.2559651	himself on	-0.025297174
-1.4507126	looked on	-0.025297174
-1.516952	down on	-0.025297174
-0.8077497	crimes on	-0.025297174
-1.0940863	asleep on	-0.025297174
-0.8077497	lounged on	-0.025297174
-0.8077497	already on	-0.025297174
-3.0705497	the contrary	-0.025297174
-3.111723	, pushed	-0.025297174
-0.8209417	pushed back	-0.025297174
-1.294059	drew back	-0.025297174
-1.1199651	threw back	-0.025297174
-2.6208436	of their	-0.025297174
-1.2917233	back their	-0.025297174
-0.8201545	taken their	-0.025297174
-0.8201545	recognize their	-0.025297174
-1.4214393	their plates	-0.025297174
-0.80436736	, and	-0.092813745
-1.9851046	to and	-0.025297174
-0.78904974	plates and	-0.025297174
-1.8146143	it and	-0.025297174
-1.5210447	card and	-0.025297174
-0.78904974	summons and	-0.025297174
-0.78904974	friendship and	-0.025297174
-1.5776225	again and	-0.025297174
-1.5871426	this and	-0.025297174
-1.3028615	rubles and	-0.025297174
-0.78904974	desperate and	-0.025297174
-0.78904974	glass and	-0.025297174
-1.4526838	room and	-0.025297174
-1.3028615	ball and	-0.025297174
-0.78904974	smiled and	-0.025297174
-1.3885028	left and	-0.025297174
-0.78904974	blushed and	-0.025297174
-1.2053934	head and	-0.025297174
-0.78904974	good-will and	-0.025297174
-0.78904974	jostled and	-0.025297174
-0.78904974	glove and	-0.025297174
-0.78904974	tender and	-0.025297174
-0.78904974	explanation and	-0.025297174
-1.0586287	dropped and	-0.025297174
-0.78904974	papers and	-0.025297174
-1.0586287	instructions and	-0.025297174
-0.78904974	lighted and	-0.025297174
-0.78904974	wraps and	-0.025297174
-0.78904974	cap and	-0.025297174
-1.4287317	down and	-0.025297174
-0.78904974	ear and	-0.025297174
-1.0586287	pocket and	-0.025297174
-0.78904974	napoleon and	-0.025297174
-1.0586287	terror and	-0.025297174
-0.78904974	tenderness and	-0.025297174
-1.0586287	rose and	-0.025297174
-1.2053934	turned and	-0.025297174
-0.78904974	home and	-0.025297174
-0.78904974	commission and	-0.025297174
-0.78904974	hospitality and	-0.025297174
-0.78904974	generals and	-0.025297174
-0.78904974	gray-haired and	-0.025297174
-0.78904974	sparkled and	-0.025297174
-0.78904974	questions and	-0.025297174
-1.0586287	shuffled and	-0.025297174
-2.8039596	, sat	-0.025297174
-2.4564536	and sat	-0.025297174
-2.2105262	herman sat	-0.025297174
-1.2847905	men sat	-0.025297174
-1.7134429	she sat	-0.025297174
-0.8178015	ivanovna sat	-0.025297174
-0.8178015	lady sat	-0.025297174
-1.7194251	sat brooding	-0.025297174
-0.8220602	brooding gloomily	-0.025297174
-3.1237555	. under	-0.025297174
-3.0705497	the influence	-0.025297174
-2.935228	the good	-0.025297174
-2.6356914	a good	-0.025297174
-2.0214183	is good	-0.025297174
-3.0023956	the wine	-0.025297174
-1.2958399	good wine	-0.025297174
-2.476755	, however	-0.163094
-2.4694762	the conversation	-0.025297174
-1.6492485	, then	-0.025297174
-1.1121924	conversation then	-0.025297174
-2.1950839	herman then	-0.025297174
-1.401739	count then	-0.025297174
-1.7264752	man then	-0.025297174
-0.81701994	woman; then	-0.025297174
-0.81701994	herself; then	-0.025297174
-0.81701994	fantom then	-0.025297174
-1.9496487	then became	-0.025297174
-2.292631	herman became	-0.025297174
-1.1221948	became general	-0.025297174
-2.473119	<s> "well	-0.163094
-3.111723	, sourine	-0.025297174
-1.2559651	house ?	-0.025297174
-1.6171098	been ?	-0.025297174
-0.8077497	sourine ?	-0.025297174
-1.9956969	it ?	-0.025297174
-2.0430424	herman ?	-0.025297174
-1.9432715	that ?	-0.025297174
-1.6240435	card ?	-0.025297174
-1.7883246	me ?	-0.025297174
-0.8077497	"why ?	-0.025297174
-1.0940863	story ?	-0.025297174
-1.9933807	him ?	-0.025297174
-1.8588549	not ?	-0.163094
-1.0940863	ask ?	-0.025297174
-1.0940863	pavel ?	-0.025297174
-1.2559651	present ?	-0.025297174
-0.8077497	soldier ?	-0.025297174
-0.8077497	engineer ?	-0.025297174
-0.8077497	sympathy ?	-0.025297174
-0.8077497	speaking ?	-0.025297174
-0.8077497	saying ?	-0.025297174
-1.1062996	, "	-0.23049082
-1.0159855	. "	-1.3043921
-0.038864955	? "	-0.35840702
-0.48509708	! "	-0.088753186
-1.4773126	" said	-0.2249792
-1.3287529	is said	-0.025297174
-2.398601	she said	-0.025297174
-2.020582	the host	-0.025297174
-2.4968452	his host	-0.025297174
-1.5174593	host inquiringly	-0.025297174
-3.1385982	<s> "oh	-0.025297174
-1.8168873	, i	-0.025297202
-2.1683855	. i	-0.025297174
-2.2820911	and i	-0.025297174
-0.8123601	cool i	-0.025297174
-1.9911842	that i	-0.025297174
-1.103045	person i	-0.025297174
-0.57677317	"but i	-0.025297174
-1.7893924	but i	-0.025297174
-0.8123601	'but i	-0.025297174
-0.8123601	"'but i	-0.025297174
-0.8123601	say i	-0.025297174
-1.103045	now i	-0.025297174
-0.8123601	jest; i	-0.025297174
-0.8123601	"because i	-0.025297174
-2.947306	, lost	-0.025297174
-2.094069	i lost	-0.025297174
-2.3746777	she lost	-0.025297174
-1.5080897	has lost	-0.025297174
-2.6913323	<s> as	-0.025297174
-1.7083852	, as	-0.025297174
-1.9476993	. as	-0.088753186
-2.242884	and as	-0.025297174
-1.3783708	lost as	-0.025297174
-1.3783708	' as	-0.025297174
-1.1000382	toilet as	-0.025297174
-0.81081784	spent as	-0.025297174
-0.81081784	quick as	-0.025297174
-0.81081784	leaf as	-0.025297174
-1.3847325	lips as	-0.025297174
-1.1000382	paused as	-0.025297174
-0.81081784	hands as	-0.025297174
-1.1000382	pale as	-0.025297174
-0.81081784	almost as	-0.025297174
-0.81081784	drunk as	-0.025297174
-1.4613879	as usual	-0.163094
-2.4968452	his usual	-0.025297174
-1.9422563	of my	-0.025297174
-2.7449183	. my	-0.025297174
-2.4175804	to my	-0.025297174
-2.044445	on my	-0.025297174
-2.3031073	and my	-0.025297174
-1.9148263	is my	-0.025297174
-1.3922179	why my	-0.025297174
-0.81313324	ago my	-0.025297174
-1.7967819	but my	-0.025297174
-0.81313324	insisted my	-0.025297174
-1.2712483	being my	-0.025297174
-0.81313324	make my	-0.025297174
-0.81313324	against my	-0.025297174
-1.9593	my luck	-0.025297174
-0.81081784	luck is	-0.025297174
-1.2646325	"how is	-0.025297174
-2.0332208	it is	-0.025297174
-0.81081784	"herman is	-0.025297174
-1.1000382	understand is	-0.025297174
-2.1589997	she is	-0.025297174
-2.2055988	he is	-0.025297174
-1.4643619	there is	-0.025297174
-0.81081784	"'there is	-0.025297174
-1.3783708	much is	-0.025297174
-1.3783708	word is	-0.025297174
-1.1000382	"no; is	-0.025297174
-0.57604665	"it is	-0.025297174
-0.81081784	name is	-0.025297174
-1.2646325	stake is	-0.025297174
-1.3783708	queen is	-0.025297174
-2.038894	is abominable	-0.025297174
-2.24817	in no	-0.025297174
-2.7233262	. no	-0.025297174
-1.5132483	was no	-0.025297174
-2.3950112	to no	-0.025297174
-1.9054759	is no	-0.025297174
-1.8492991	have no	-0.025297174
-1.7320262	countess no	-0.025297174
-1.103045	"have no	-0.025297174
-0.9938489	made no	-0.163094
-1.103045	received no	-0.025297174
-0.8123601	met no	-0.025297174
-0.8123601	surprised no	-0.025297174
-1.103045	paid no	-0.025297174
-0.8123601	finding no	-0.025297174
-2.01465	no matter	-0.025297174
-0.8193688	matter how	-0.025297174
-1.8609141	but how	-0.025297174
-1.2894001	knew how	-0.025297174
-0.8193688	realized how	-0.025297174
-0.8193688	one: how	-0.025297174
-1.5179673	how cool	-0.025297174
-2.7880604	to keep	-0.025297174
-2.1186209	i keep	-0.025297174
-2.0677397	i never	-0.025297174
-1.657483	you never	-0.025297174
-1.8207736	grandmother never	-0.025297174
-2.3304546	she never	-0.025297174
-1.5004891	must never	-0.025297174
-1.1152848	swear never	-0.025297174
-2.156743	to win	-0.025297174
-1.6582285	never win	-0.025297174
-2.264476	<s> "how	-0.025297174
-2.2465615	of it	-0.025297174
-2.422732	, it	-0.025297174
-1.927013	. it	-0.088753186
-2.1600847	at it	-0.025297174
-2.2472975	to it	-0.025297174
-1.9492302	as it	-0.025297174
-1.837141	is it	-0.025297174
-1.6148427	card it	-0.025297174
-0.80622375	explains it	-0.025297174
-1.0911407	pay it	-0.025297174
-1.6912662	about it	-0.025297174
-1.2516955	knew it	-0.025297174
-0.93099934	upon it	-0.025297174
-0.80622375	it; it	-0.025297174
-1.5171541	thought it	-0.025297174
-1.0911407	dropped it	-0.025297174
-1.0911407	received it	-0.025297174
-1.5091962	down it	-0.025297174
-0.80622375	accept it	-0.025297174
-0.80622375	handed it	-0.025297174
-0.80622375	examined it	-0.025297174
-0.80622375	laid it	-0.025297174
-1.4472997	<s> herman	-0.025297202
-2.274837	, herman	-0.025297174
-1.7031428	. herman	-0.025297174
-2.3735573	to herman	-0.025297174
-2.2620451	and herman	-0.025297174
-1.5940912	said herman	-0.2435532
-1.8963224	is herman	-0.025297174
-1.3812239	remarked herman	-0.025297174
-1.3872132	replied herman	-0.025297174
-1.7531652	this herman	-0.025297174
-1.3872132	asked herman	-0.025297174
-1.4678423	than herman	-0.025297174
-0.8115883	"this herman	-0.025297174
-0.8115883	invited herman	-0.025297174
-0.8115883	presented herman	-0.025297174
-2.1179607	, that	-0.025297174
-1.9935855	as that	-0.025297174
-1.8785748	is that	-0.025297174
-2.1025405	you that	-0.025297174
-0.81004876	economical; that	-0.025297174
-1.528852	see that	-0.025297174
-1.0985426	fact that	-0.025297174
-2.1764638	her that	-0.025297174
-1.6831206	told that	-0.025297174
-2.0214403	him that	-0.163094
-1.3755362	count that	-0.025297174
-1.6506231	money that	-0.025297174
-1.2624494	know that	-0.025297174
-1.5352352	saw that	-0.025297174
-0.698158	felt that	-0.025297174
-1.2624494	believe that	-0.025297174
-0.81004876	impossible that	-0.025297174
-1.8548522	of you	-0.025297174
-2.510999	. you	-0.025297174
-1.6086257	to you	-0.2435532
-2.074158	and you	-0.025297174
-1.351007	that you	-0.025297174
-0.80243206	"here you	-0.025297174
-0.82574064	are you	-0.025297174
-1.7589631	have you	-0.025297174
-1.0838629	"have you	-0.025297174
-0.80243206	lend you	-0.025297174
-0.57207227	until you	-0.025297174
-0.80243206	"so you	-0.025297174
-0.80243206	take you	-0.025297174
-0.579973	do you	-0.025297174
-1.3481638	if you	-0.025297174
-1.0838629	screen you	-0.025297174
-1.3583398	find you	-0.025297174
-0.80243206	harm you	-0.025297174
-0.80243206	costing you	-0.025297174
-0.80243206	"will you	-0.025297174
-1.0838629	force you	-0.025297174
-1.0838629	pale you	-0.025297174
-0.80243206	concerning you	-0.025297174
-0.80243206	show you	-0.025297174
-0.80243206	used you	-0.025297174
-0.80243206	"do you	-0.025297174
-0.80243206	remind you	-0.025297174
-1.6618128	never touch	-0.025297174
-2.227482	the card	-0.025297174
-1.8147801	a card	-0.1121475
-0.80120164	each card	-0.163094
-1.8185768	his card	-0.025297174
-1.4814656	" remarked	-0.025297174
-2.6913323	<s> one	-0.025297174
-2.5383463	, one	-0.025297174
-2.683118	. one	-0.025297174
-2.224418	at one	-0.025297174
-2.3531134	to one	-0.025297174
-2.019923	on one	-0.025297174
-1.075141	no one	-0.35014957
-1.3783708	remarked one	-0.025297174
-1.4705646	each one	-0.025297174
-1.4643619	any one	-0.025297174
-1.1000382	some one	-0.025297174
-0.48850214	every one	-0.025297174
-1.2646325	present one	-0.025297174
-0.81081784	closing one	-0.025297174
-0.81081784	unfamiliar one	-0.025297174
-0.81081784	winked one	-0.025297174
-2.935228	the men	-0.025297174
-1.7124075	young men	-0.025297174
-0.8209417	twenty men	-0.025297174
-3.111723	, addressing	-0.025297174
-1.5271927	the young	-0.30540588
-1.579881	a young	-0.2435532
-0.8209417	whist; young	-0.025297174
-3.0705497	the engineering	-0.025297174
-0.8220602	engineering corps	-0.025297174
-3.1237555	. "here	-0.025297174
-1.2847905	"how are	-0.025297174
-1.6528093	you are	-0.025297174
-1.4967381	which are	-0.025297174
-1.1137358	succession are	-0.025297174
-0.40422207	whom are	-0.025297174
-1.2847905	"you are	-0.025297174
-1.1137358	what are	-0.025297174
-3.0023956	the rest	-0.025297174
-0.82154	moment's rest	-0.025297174
-2.0294063	of us	-0.025297174
-1.121157	five o'clock	-0.025297174
-1.4193748	two o'clock	-0.025297174
-2.4933133	to have	-0.025297174
-1.3997915	i have	-0.025297174
-1.6390826	you have	-0.025297174
-0.9970836	"i have	-0.088753186
-1.4856757	could have	-0.025297174
-1.4856757	must have	-0.025297174
-0.8154611	stories have	-0.025297174
-1.4896669	would have	-0.025297174
-1.6732209	three have	-0.025297174
-1.1091218	"where have	-0.025297174
-1.9576867	have neither	-0.025297174
-0.8209417	neither played	-0.025297174
-0.8209417	ladies played	-0.025297174
-0.8209417	statesmen played	-0.025297174
-1.2973924	played nor	-0.025297174
-0.8220602	nor bet	-0.025297174
-2.7319036	<s> all	-0.025297174
-1.9353951	of all	-0.025297174
-2.2870417	, all	-0.025297174
-2.334358	. all	-0.025297174
-2.24817	at all	-0.025297174
-2.1864393	was all	-0.025297174
-2.3950112	to all	-0.025297174
-2.2820911	and all	-0.025297174
-0.8123601	bet all	-0.025297174
-2.2274237	her all	-0.025297174
-1.7768636	after all	-0.025297174
-1.6477304	were all	-0.025297174
-0.8123601	probably all	-0.025297174
-0.8123601	answering all	-0.025297174
-3.1385982	<s> "play	-0.025297174
-0.8220602	"play interests	-0.025297174
-1.6745241	to me	-0.088753186
-0.8154611	interests me	-0.025297174
-1.7204514	told me	-0.025297174
-0.8154611	"take me	-0.025297174
-0.3661046	tell me	-0.1121475
-0.8154611	seen me	-0.025297174
-0.8154611	"direct me	-0.025297174
-0.8154611	"permit me	-0.025297174
-0.8154611	"excuse me	-0.025297174
-0.8154611	"allow me	-0.025297174
-1.926739	me greatly	-0.025297174
-1.4795305	" replied	-0.088753186
-1.4193748	' replied	-0.025297174
-2.4694762	the person	-0.025297174
-1.1221948	person addressed	-0.025297174
-3.0079632	, "but	-0.025297174
-3.0544934	. "but	-0.025297174
-0.8209417	abruptly; "but	-0.025297174
-2.094069	i hardly	-0.025297174
-1.7056434	"i hardly	-0.025297174
-2.3746777	she hardly	-0.025297174
-1.1183994	need hardly	-0.025297174
-1.4214393	hardly care	-0.025297174
-2.8254488	to sacrifice	-0.025297174
-3.0705497	the necessaries	-0.025297174
-1.8158876	of life	-0.025297174
-0.82154	whole life	-0.025297174
-2.5610046	, for	-0.025297174
-1.3812239	life for	-0.025297174
-1.4678423	way for	-0.025297174
-0.8115883	excuse for	-0.025297174
-1.3812239	word for	-0.025297174
-0.8115883	begging for	-0.025297174
-0.8115883	arrange for	-0.025297174
-0.8115883	inquire for	-0.025297174
-0.8115883	readiness for	-0.025297174
-1.101539	motionless for	-0.025297174
-0.8115883	preference for	-0.025297174
-1.101539	paid for	-0.025297174
-0.8115883	secured for	-0.025297174
-0.8115883	frowned for	-0.025297174
-0.8115883	signal for	-0.025297174
-1.9888717	for uncertain	-0.025297174
-0.8220602	uncertain superfluities	-0.025297174
-3.1385982	<s> "herman	-0.025297174
-2.0405512	a german	-0.025297174
-3.060406	, therefore	-0.025297174
-2.4176779	she therefore	-0.025297174
-1.1221948	therefore economical;	-0.025297174
-2.1111708	that explains	-0.025297174
-2.5056062	of tomsky	-0.025297174
-2.765058	, tomsky	-0.025297174
-2.8726866	. tomsky	-0.025297174
-1.6281021	said tomsky	-0.025297174
-1.4049875	replied tomsky	-0.025297174
-1.6334941	by tomsky	-0.025297174
-1.1121924	pavel tomsky	-0.025297174
-0.81701994	continued tomsky	-0.025297174
-2.1186209	i can't	-0.025297174
-1.7156255	"i can't	-0.025297174
-1.1221948	can't quite	-0.025297174
-1.121157	can't understand	-0.025297174
-0.82154	quite understand	-0.025297174
-2.4157658	, grandmother	-0.025297174
-2.5523605	a grandmother	-0.025297174
-2.972445	. grandmother	-0.025297174
-1.9606826	and grandmother	-0.025297174
-0.6276494	my grandmother	-0.025297202
-1.666812	the countess	-0.08122701
-1.659022	old countess	-0.025297174
-1.8145694	countess anna	-0.163094
-0.8220602	anna fedorovna	-0.025297174
-3.1385982	<s> "why	-0.025297174
-2.1859183	" inquired	-0.025297174
-2.7062454	a chorus	-0.025297174
-2.7089832	of voices	-0.025297174
-1.6556789	<s> "i	-0.025297174
-2.243549	. "i	-0.35014957
-3.0115345	. why	-0.025297174
-1.1183994	understand why	-0.025297174
-1.8696399	but why	-0.025297174
-1.1183994	"no; why	-0.025297174
-1.6618128	never gambles	-0.025297174
-1.7194251	"i don't	-0.025297174
-1.9381286	to see	-0.025297174
-2.3185916	you see	-0.025297174
-0.8201545	don't see	-0.025297174
-2.0109563	not see	-0.025297174
-2.3582199	you anything	-0.025297174
-1.592672	see anything	-0.025297174
-2.1038985	that very	-0.025297174
-1.121157	anything very	-0.025297174
-1.1221948	very striking	-0.025297174
-3.0023956	the fact	-0.025297174
-1.8490058	this fact	-0.025297174
-2.0243168	a woman	-0.025297174
-0.94722784	old woman	-0.07529853
-1.4170096	dead woman	-0.025297174
-2.7089832	of eighty	-0.025297174
-0.8220602	eighty refuses	-0.025297174
-2.8254488	to gamble	-0.025297174
-2.1859183	" objected	-0.025297174
-2.473119	<s> "have	-0.025297174
-1.643535	never heard	-0.025297174
-2.2431629	herman heard	-0.025297174
-1.925059	have heard	-0.025297174
-1.6338234	he heard	-0.35014957
-1.1168393	just heard	-0.025297174
-1.3534796	of her	-0.025297202
-2.25617	, her	-0.025297174
-1.232932	in her	-0.025297174
-2.1894372	. her	-0.025297174
-1.0875442	at her	-0.07529853
-1.2902002	to her	-0.025297174
-1.8962682	on her	-0.025297174
-1.2269232	back her	-0.025297174
-1.9932196	and her	-0.025297174
-1.2269232	win her	-0.025297174
-1.4653623	see her	-0.025297174
-1.4178343	heard her	-0.025297174
-1.2269232	get her	-0.025297174
-0.82080114	told her	-0.025297174
-1.6322192	about her	-0.025297174
-1.0738747	obeyed her	-0.025297174
-1.3423429	found her	-0.025297174
-0.92092323	upon her	-0.025297174
-1.7966316	out her	-0.025297174
-0.781642	before her	-0.025297174
-0.7971787	bent her	-0.025297174
-1.3423429	over her	-0.025297174
-0.77551013	into her	-0.025297174
-0.7971787	send her	-0.025297174
-0.7971787	removed her	-0.025297174
-0.7971787	wore her	-0.025297174
-1.3423429	opened her	-0.025297174
-0.7971787	grasped her	-0.025297174
-0.7971787	rallied her	-0.025297174
-0.7971787	assuring her	-0.025297174
-0.7971787	fearing her	-0.025297174
-0.7971787	regarded her	-0.025297174
-0.7971787	drying her	-0.025297174
-0.7971787	cross her	-0.025297174
-3.0023956	the story	-0.025297174
-2.518152	her story	-0.025297174
-3.1385982	<s> "no--"	-0.025297174
-3.060406	, listen	-0.025297174
-3.0901873	. listen	-0.025297174
-2.8254488	to begin	-0.025297174
-3.0079632	, sixty	-0.025297174
-1.8051094	about sixty	-0.025297174
-0.8209417	done sixty	-0.025297174
-0.58131146	sixty years	-0.025297174
-1.1221948	years ago	-0.025297174
-1.1168393	gambling went	-0.025297174
-1.9606826	and went	-0.025297174
-1.9213551	then went	-0.025297174
-1.8283056	grandmother went	-0.025297174
-2.4369373	he went	-0.025297174
-2.1651974	to paris	-0.025297174
-2.2636495	, where	-0.025297174
-1.4193748	window where	-0.025297174
-2.3220584	<s> she	-0.025297174
-1.5562245	, she	-0.025297174
-1.2307314	. she	-0.057983845
-1.8567275	and she	-0.025297174
-1.8160707	then she	-0.025297174
-1.4383044	" she	-0.025297174
-0.9871477	as she	-0.2435532
-1.1701611	that she	-0.025297174
-1.3755362	where she	-0.025297174
-1.7679496	but she	-0.1121475
-0.81004876	play; she	-0.025297174
-0.81004876	soldiers she	-0.025297174
-1.4609091	than she	-0.025297174
-1.5352352	thought she	-0.025297174
-1.4609091	last she	-0.025297174
-1.4674609	when she	-0.025297174
-0.81004876	imprudently she	-0.025297174
-3.0705497	the fashion	-0.025297174
-3.1237555	. people	-0.025297174
-0.8220602	people crowded	-0.025297174
-2.5890436	of each	-0.025297174
-2.8940914	, each	-0.025297174
-2.1175385	on each	-0.025297174
-0.8193688	crowded each	-0.025297174
-1.832955	after each	-0.025297174
-1.9893019	no other	-0.025297174
-2.013105	all other	-0.025297174
-1.5096482	each other	-0.025297174
-1.1183994	many other	-0.025297174
-3.0705497	the streets	-0.025297174
-1.9571075	to get	-0.025297174
-2.6720252	a chance	-0.025297174
-3.0901873	. chance	-0.025297174
-3.0705497	the 'muscovite	-0.025297174
-0.8220602	'muscovite venus	-0.025297174
-2.2636495	, '	-0.025297174
-2.4495015	. '	-0.163094
-2.458952	was called	-0.025297174
-2.4314103	the great	-0.025297174
-2.0243168	a great	-0.163094
-2.4088037	in great	-0.025297174
-1.4214393	great ladies	-0.025297174
-2.6551576	of faro	-0.025297174
-1.294059	played faro	-0.025297174
-1.1199651	playing faro	-0.025297174
-2.0668008	one occasion	-0.025297174
-2.464311	, while	-0.025297174
-1.7172118	money while	-0.025297174
-1.7156255	sat playing	-0.025297174
-1.2958399	while playing	-0.025297174
-2.4694762	the duke	-0.163094
-2.7089832	of orleans	-0.025297174
-2.8265624	<s> an	-0.025297174
-2.6963682	, an	-0.025297174
-1.6694134	been an	-0.025297174
-2.2999666	in an	-0.025297174
-2.2999666	at an	-0.025297174
-2.257086	was an	-0.025297174
-2.035162	with an	-0.025297174
-1.395778	lost an	-0.025297174
-1.9200156	for an	-0.025297174
-0.8154611	roused an	-0.025297174
-1.8140664	an enormous	-0.025297174
-0.82154	enormous sum	-0.025297174
-0.82154	required sum	-0.025297174
-1.6806749	been told	-0.025297174
-2.4268355	and told	-0.025297174
-1.8925463	then told	-0.025297174
-1.6281021	never told	-0.025297174
-1.1121924	story told	-0.025297174
-2.2903216	she told	-0.025297174
-0.81701994	uncle told	-0.025297174
-1.5666428	be told	-0.025297174
-1.8591855	her husband	-0.025297174
-3.0023956	the debt	-0.025297174
-2.6831355	of debt	-0.025297174
-1.4235724	, but	-0.092641875
-2.243549	. but	-0.025297174
-1.9279398	<s> he	-0.025297174
-1.6007584	, he	-0.025297174
-1.5099087	night he	-0.025297174
-1.0468054	. he	-0.1045001
-2.0870578	and he	-0.025297174
-1.4149598	" he	-0.025297174
-1.5455066	said he	-0.025297174
-1.4006777	as he	-0.025297174
-1.8066238	is he	-0.025297174
-0.92310965	that he	-0.025297174
-1.5970057	card he	-0.025297174
-1.3508247	where he	-0.025297174
-1.24328	while he	-0.025297174
-1.7093245	but he	-0.025297174
-1.24328	evening he	-0.025297174
-1.3508247	soon he	-0.025297174
-1.4310106	so he	-0.025297174
-1.0853088	such he	-0.025297174
-1.4310106	last he	-0.025297174
-0.7867724	when he	-0.025297174
-0.8031877	supposed he	-0.025297174
-0.8031877	character; he	-0.025297174
-1.4310106	has he	-0.025297174
-1.24328	believe he	-0.025297174
-1.0853088	what he	-0.025297174
-1.5543073	ace he	-0.025297174
-2.5440526	he refused	-0.025297174
-0.8220602	refused outright	-0.025297174
-2.1651974	to pay	-0.025297174
-3.1237555	. nothing	-0.025297174
-1.8421944	he could	-0.025297174
-0.8201545	nothing could	-0.025297174
-0.8201545	"'i could	-0.025297174
-1.2917233	"you could	-0.025297174
-1.5174593	could induce	-0.025297174
-1.8840898	of him	-0.163094
-1.6635653	at him	-0.025297174
-2.2472975	to him	-0.163094
-1.9746786	on him	-0.025297174
-1.2448156	for him	-0.025297174
-1.658293	told him	-0.025297174
-0.80622375	induce him	-0.025297174
-1.6912662	about him	-0.025297174
-0.80622375	sent him	-0.025297174
-0.80622375	asking him	-0.025297174
-1.2516955	know him	-0.025297174
-1.0911407	making him	-0.025297174
-1.2516955	present him	-0.025297174
-1.5171541	saw him	-0.025297174
-0.80622375	comprehending him	-0.025297174
-0.6956201	gave him	-0.025297174
-0.80622375	rescued him	-0.025297174
-1.0911407	around him	-0.025297174
-0.80622375	accompany him	-0.025297174
-0.80622375	begged him	-0.025297174
-0.80622375	eyed him	-0.025297174
-0.80622375	greeted him	-0.025297174
-2.8254488	to change	-0.025297174
-1.4690683	of his	-0.025297174
-1.3125281	passed his	-0.025297174
-1.8673366	. his	-0.025297174
-2.002931	at his	-0.025297174
-1.8825164	was his	-0.025297174
-1.7194998	to his	-0.025297174
-1.8309718	with his	-0.025297174
-1.183478	on his	-0.025297174
-1.925022	and his	-0.025297174
-1.6605654	then his	-0.025297174
-1.3125281	lost his	-0.025297174
-1.8389767	it his	-0.025297174
-1.7291275	all his	-0.025297174
-1.3125281	where his	-0.025297174
-1.0641109	pay his	-0.025297174
-0.7919882	change his	-0.025297174
-1.5118201	upon his	-0.025297174
-1.4416972	returned his	-0.025297174
-0.3969518	lit his	-0.025297174
-1.4641205	took his	-0.025297174
-1.7608398	out his	-0.025297174
-0.7919882	paying his	-0.025297174
-0.97395116	up his	-0.025297174
-0.7919882	draining his	-0.025297174
-0.7919882	taking his	-0.025297174
-0.7919882	explain his	-0.025297174
-1.2283715	enter his	-0.025297174
-1.5658689	into his	-0.025297174
-1.2130996	put his	-0.025297174
-0.6263246	from his	-0.2435532
-0.7919882	repeated his	-0.025297174
-0.7919882	renew his	-0.025297174
-1.2130996	believe his	-0.025297174
-0.7919882	recover his	-0.025297174
-0.7919882	stifling his	-0.025297174
-0.7919882	stimulate his	-0.025297174
-0.7919882	resigning his	-0.025297174
-1.0641109	around his	-0.025297174
-0.7919882	humor; his	-0.025297174
-1.0641109	selected his	-0.025297174
-0.7919882	showed his	-0.025297174
-2.4088037	in mind	-0.025297174
-2.4715216	his mind	-0.025297174
-0.8209417	lisa's mind	-0.025297174
-3.0705497	the subject	-0.025297174
-2.5419905	her wits'	-0.025297174
-0.8220602	wits' ends	-0.025297174
-2.4495015	. finally	-0.025297174
-0.82154	persistence finally	-0.025297174
-2.434951	she remembered	-0.025297174
-2.7062454	a friend	-0.025297174
-2.7089832	of hers	-0.025297174
-2.4314103	the count	-0.025297174
-3.0079632	, count	-0.025297174
-1.5902756	"the count	-0.025297174
-1.4214393	count saint-germain	-0.025297174
-1.666984	you must	-0.025297174
-1.7056434	"i must	-0.025297174
-0.8201545	writer must	-0.025297174
-1.1183994	hours must	-0.025297174
-2.6341991	and many	-0.025297174
-2.159421	as many	-0.025297174
-1.1221948	many wonderful	-0.025297174
-0.8220602	wonderful stories	-0.025297174
-2.4577363	of about	-0.025297174
-2.257086	was about	-0.025297174
-2.3062587	her about	-0.025297174
-1.7204514	told about	-0.025297174
-1.4856757	which about	-0.025297174
-0.8154611	bring about	-0.025297174
-0.8154611	pavement about	-0.025297174
-1.395778	if about	-0.025297174
-0.8154611	moving about	-0.025297174
-0.8154611	jesting about	-0.025297174
-1.7148346	been discovered	-0.025297174
-1.9512025	have discovered	-0.025297174
-3.0705497	the elixir	-0.025297174
-3.0705497	the philosopher's	-0.025297174
-0.8220602	philosopher's stone	-0.025297174
-1.4214393	other equally	-0.025297174
-0.8220602	equally marvelous	-0.025297174
-0.8220602	marvelous things	-0.025297174
-2.3391256	the money	-0.025297174
-2.5316772	of money	-0.025297174
-2.037519	had money	-0.025297174
-2.3188097	was money	-0.025297174
-1.9597771	no money	-0.025297174
-1.4967381	any money	-0.025297174
-0.8178015	ready money	-0.025297174
-2.5200996	his disposal	-0.025297174
-1.4170096	hardly knew	-0.025297174
-1.8437732	grandmother knew	-0.025297174
-2.4963744	he knew	-0.025297174
-2.434951	she sent	-0.025297174
-2.8601098	the note	-0.025297174
-2.6208436	of note	-0.025297174
-2.0132205	a note	-0.025297174
-1.2917233	another note	-0.025297174
-1.5183339	note asking	-0.025297174
-2.701637	to come	-0.025297174
-2.3185916	you come	-0.025297174
-1.9343543	have come	-0.163094
-2.0109563	not come	-0.025297174
-2.5440526	he obeyed	-0.025297174
-2.5419905	her summons	-0.025297174
-2.55978	and found	-0.025297174
-2.4656398	he found	-0.025297174
-0.8201545	haven't found	-0.025297174
-0.8201545	officers found	-0.025297174
-1.4214393	great distress	-0.025297174
-2.434951	she painted	-0.025297174
-3.0705497	the cruelty	-0.025297174
-3.0705497	the darkest	-0.025297174
-0.8220602	darkest colors	-0.025297174
-2.665728	and ended	-0.025297174
-1.7374879	told by	-0.025297174
-0.8178015	ended by	-0.025297174
-0.8178015	excited by	-0.025297174
-0.8178015	impressed by	-0.025297174
-0.8178015	daunted by	-0.025297174
-1.4967381	last by	-0.025297174
-0.8178015	attended by	-0.025297174
-1.6626837	by telling	-0.025297174
-2.434951	she depended	-0.025297174
-0.8178015	depended upon	-0.025297174
-1.4047505	smile upon	-0.025297174
-0.8178015	impression upon	-0.025297174
-1.2847905	turned upon	-0.025297174
-0.8178015	stand upon	-0.025297174
-1.2847905	stake upon	-0.025297174
-0.8178015	placed upon	-0.025297174
-2.5200996	his friendship	-0.025297174
-2.665728	and generosity	-0.025297174
-3.1385982	<s> "'i	-0.025297174
-1.5174593	could lend	-0.025297174
-2.4037619	<s> after	-0.025297174
-2.3684902	, after	-0.025297174
-2.3893003	. after	-0.025297174
-2.4268355	and after	-0.025297174
-2.1950839	herman after	-0.025297174
-0.81701994	poverty after	-0.025297174
-1.1121924	carriage after	-0.025297174
-1.1121924	paused after	-0.025297174
-2.6720252	a moment	-0.025297174
-1.2958399	same moment	-0.025297174
-2.7089832	of thoughtfulness	-0.025297174
-3.111723	, 'but	-0.025297174
-2.748648	to know	-0.025297174
-2.1078572	i know	-0.025297174
-2.340677	you know	-0.025297174
-2.1571019	it would	-0.025297174
-2.2975752	you would	-0.025297174
-1.1168393	us would	-0.025297174
-1.7902424	countess would	-0.025297174
-1.2894001	we would	-0.025297174
-2.5849106	, not	-0.025297174
-1.5132483	was not	-0.025297174
-1.2251226	have not	-0.025297174
-1.8907658	for not	-0.025297174
-1.3897084	why not	-0.025297174
-2.0514388	him not	-0.025297174
-1.4713509	must not	-0.025297174
-1.4768391	would not	-0.025297174
-1.6477304	were not	-0.025297174
-1.4808375	do not	-0.025297174
-0.8717594	or not	-0.163094
-1.384096	if not	-0.025297174
-0.8123601	curiosity not	-0.025297174
-1.103045	did not	-0.025297174
-2.0393903	not enjoy	-0.025297174
-2.7062454	a moment's	-0.025297174
-2.13791	on until	-0.025297174
-1.1199651	rest until	-0.025297174
-0.8209417	remain until	-0.025297174
-2.0621343	had returned	-0.025297174
-2.5225387	and returned	-0.025297174
-1.8351896	he returned	-0.1121475
-1.4108368	smile returned	-0.025297174
-1.5800076	face returned	-0.025297174
-1.5957524	returned it;	-0.025297174
-1.7369986	was only	-0.163094
-1.1137358	wine only	-0.025297174
-1.975598	is only	-0.025297174
-1.9070446	have only	-0.025297174
-0.79920554	would only	-0.025297174
-1.1137358	second only	-0.025297174
-0.8178015	invitation only	-0.025297174
-1.7194251	only add	-0.025297174
-2.701637	to your	-0.025297174
-1.1183994	course your	-0.025297174
-0.8201545	grant your	-0.025297174
-0.8201545	"that your	-0.025297174
-2.4968452	his embarrassment	-0.025297174
-1.4193748	your embarrassment	-0.025297174
-2.9842162	<s> there	-0.025297174
-1.8283056	officer there	-0.025297174
-2.972445	. there	-0.025297174
-2.2975752	you there	-0.025297174
-1.8974954	me there	-0.025297174
-2.0214183	is another	-0.025297174
-2.4922283	her another	-0.025297174
-1.418144	find another	-0.025297174
-2.4064367	the way	-0.025297174
-1.2917233	another way	-0.025297174
-1.7071786	made way	-0.025297174
-1.8344686	this way	-0.025297174
-2.7089832	of freeing	-0.025297174
-0.8220602	freeing yourself	-0.025297174
-3.1385982	<s> "'but	-0.025297174
-1.4214393	' insisted	-0.025297174
-3.1385982	<s> "'there	-0.025297174
-2.0075939	no need	-0.025297174
-0.82154	reader need	-0.025297174
-1.8601956	<s> "the	-0.025297202
-0.82154	tone: "the	-0.025297174
-2.2438602	the secret	-0.1121475
-2.0243168	a secret	-0.025297174
-1.2951987	magic secret	-0.025297174
-2.8940914	, which	-0.025297174
-2.374828	at which	-0.025297174
-2.0793855	with which	-0.025297174
-1.5042727	secret which	-0.025297174
-1.75457	cards which	-0.025297174
-1.5800076	see any	-0.025297174
-1.5042727	which any	-0.025297174
-0.8193688	brought any	-0.025297174
-1.5819726	time any	-0.025297174
-0.8193688	attracting any	-0.025297174
-1.5179673	would give	-0.025297174
-2.935228	the deal	-0.025297174
-1.294059	good deal	-0.025297174
-1.4170096	great deal	-0.025297174
-1.7199306	young gamesters	-0.025297174
-0.8185844	gamesters were	-0.025297174
-1.0534642	cards were	-0.088753186
-1.2870892	women were	-0.025297174
-0.8185844	lamps were	-0.025297174
-1.5028851	eyes were	-0.025297174
-0.8185844	pursuit were	-0.025297174
-1.9996071	no attention	-0.025297174
-2.024076	all attention	-0.025297174
-0.8209417	especial attention	-0.025297174
-3.060406	, lit	-0.025297174
-1.7653941	tomsky lit	-0.025297174
-2.5200996	his pipe	-0.025297174
-2.8940914	, took	-0.025297174
-2.2431629	herman took	-0.025297174
-1.74784	tomsky took	-0.025297174
-1.8283056	grandmother took	-0.025297174
-1.8351896	he took	-0.025297174
-1.5856459	a few	-0.025297174
-1.4214393	few whiffs	-0.025297174
-1.9566883	then continued:	-0.025297174
-3.0023956	the next	-0.025297174
-1.5934681	"the next	-0.025297174
-0.40524948	next evening	-0.025297174
-0.82154	following evening	-0.025297174
-1.8497894	officer appeared	-0.025297174
-1.8497894	grandmother appeared	-0.025297174
-2.4346077	at versailles	-0.025297174
-3.0705497	the queen's	-0.025297174
-0.8220602	queen's gaming-table	-0.025297174
-3.0705497	the dealer	-0.025297174
-2.765058	, made	-0.025297174
-2.4268355	and made	-0.025297174
-1.8983101	have made	-0.025297174
-1.971798	all made	-0.025297174
-1.729524	tomsky made	-0.025297174
-1.8060905	grandmother made	-0.025297174
-0.81701994	longer made	-0.025297174
-1.401739	lisa made	-0.025297174
-3.0901873	. some	-0.025297174
-1.716418	made some	-0.025297174
-1.1221948	some excuse	-0.025297174
-1.851708	after having	-0.025297174
-2.0314546	not having	-0.025297174
-1.1221948	having brought	-0.025297174
-2.4882405	and began	-0.025297174
-2.3304546	she began	-0.025297174
-2.4100149	he began	-0.025297174
-1.1152848	game began	-0.025297174
-1.1152848	servants began	-0.025297174
-1.4077829	banker began	-0.025297174
-2.8254488	to punt	-0.025297174
-2.292631	herman chose	-0.025297174
-2.4176779	she chose	-0.025297174
-1.9845955	the three	-0.088753186
-2.9365852	. three	-0.025297174
-1.1152848	chose three	-0.025297174
-0.8185844	knows three	-0.025297174
-1.1152848	nearly three	-0.025297174
-1.1152848	least three	-0.025297174
-2.19647	the cards	-0.35014957
-2.358788	at cards	-0.025297174
-1.0014964	three cards	-0.025297174
-1.1152848	winning cards	-0.025297174
-0.57969147	magic cards	-0.1121475
-0.8185844	thirty cards	-0.025297174
-1.7338169	in succession	-0.025297174
-2.8039596	, again	-0.025297174
-1.9415356	and again	-0.025297174
-1.5738254	went again	-0.025297174
-1.5766164	began again	-0.025297174
-1.5738254	them again	-0.025297174
-1.1137358	play again	-0.025297174
-0.8178015	place again	-0.025297174
-3.060406	, winning	-0.025297174
-1.7156255	three winning	-0.025297174
-2.947306	, every	-0.025297174
-3.0115345	. every	-0.025297174
-1.6514555	by every	-0.025297174
-1.1183994	winning every	-0.025297174
-1.5004891	long time	-0.025297174
-2.0249686	one time	-0.025297174
-1.4119543	every time	-0.025297174
-1.4077829	much time	-0.025297174
-1.2870892	same time	-0.025297174
-0.8185844	punters time	-0.025297174
-3.0115345	. soon	-0.025297174
-2.3907824	was soon	-0.025297174
-1.8696399	but soon	-0.025297174
-1.650343	ace soon	-0.025297174
-2.5849106	, out	-0.025297174
-0.8717594	went out	-0.025297174
-1.2690319	get out	-0.025297174
-1.3897084	found out	-0.025297174
-1.384096	soon out	-0.025297174
-1.2690319	came out	-0.025297174
-0.8123601	glanced out	-0.025297174
-1.2690319	put out	-0.025297174
-1.3897084	go out	-0.025297174
-1.2747742	going out	-0.025297174
-0.8123601	crept out	-0.025297174
-0.8123601	carried out	-0.025297174
-0.8123601	stretching out	-0.025297174
-0.4027153	counted out	-0.025297174
-3.1385982	<s> "a	-0.025297174
-0.8220602	"a fable	-0.025297174
-1.4214393	remarked herman;	-0.025297174
-0.8220602	herman; "perhaps	-0.025297174
-1.7189201	were marked	-0.025297174
